207 60
2672 0.1491857 -0.46717566 -0.06986474 0.27534842 -0.06818096 -0.2100494 0.53532493 0.0103380205 0.12176276 0.13097465 -0.49512643 -0.13688116 0.27633926 -0.27903572 -0.11040546 -0.51484084 0.0067508137 -0.073373 0.16832224 -0.13041121 -0.23586513 -0.24617143 0.1263353 0.11829884 -0.06285953 -0.23264511 -0.05517169 0.05494335 -0.06272335 -0.075183935 -0.5241775 0.078332745 0.0050464906 -0.20769104 -0.13395274 -0.5660338 -0.31610006 -0.101723135 0.012779565 0.02223827 0.24729615 0.08786603 0.27493605 -0.12446053 0.34922913 0.24588002 0.07461584 -0.41049603 0.14735259 -0.2979863 0.15318789 -0.2629234 0.34686226 0.066031374 -0.24544503 -0.119420074 -0.22198157 -0.18073222 0.047773845 0.05621571
2627 0.027944585 -0.42490736 -0.120207086 0.048015144 -0.10632248 0.017279191 0.23553765 -0.17050134 0.29329363 0.3701917 -0.37665072 -0.04393144 0.37570205 -0.121859275 -0.059420772 -0.33855683 0.1590156 0.25829324 -0.29441714 -0.075875916 -0.066221945 0.039833736 0.26265675 -0.05952775 -0.16778497 -0.25821665 -0.14397882 -0.012637775 0.2888946 0.08782873 -0.55050474 -0.008466184 0.1114457 -0.14418238 -0.18634212 -0.41498244 -0.2887957 -0.25266197 0.41745713 0.048968103 0.02352133 0.016297407 -0.07390736 0.031235505 0.37935898 0.40380946 0.19554497 -0.1919443 -0.07196677 -0.46789667 -0.5335461 -0.11624988 0.29261753 0.28903908 -0.25482643 0.17724107 -0.10576265 -0.40708148 -0.24103461 -0.04197039
2708 -0.25484422 -0.26655787 0.07772261 0.10955492 0.39412013 -0.026582919 0.36227217 -0.19570218 0.34043095 0.058112945 -0.21626973 -0.04395106 0.22546384 -0.11132086 0.1907099 -0.39952925 0.19503589 0.0530894 0.22665319 0.086971164 -0.23141822 -0.13421972 -0.050072715 0.11855395 -0.0643483 -0.1100835 -0.024304703 -0.12325095 0.32470024 -0.49822807 -0.4495576 -0.06401472 -0.20615655 -0.23749566 -0.11650836 -0.07216779 -0.343258 0.06891282 -0.09141119 0.047683477 0.13521077 -0.21904072 0.063148305 0.11214685 -0.26546714 0.3853731 0.40630972 -0.45324752 0.22150764 -0.49723652 -0.3069181 -0.34892944 0.55266064 0.18469407 -0.18542637 0.39579096 0.13352366 -0.06393327 -0.0038177571 -0.12475201
2671 -0.17694916 -0.23421127 0.19116436 0.13392998 0.021256521 0.07968109 0.4837494 0.060871407 0.4290389 0.16685542 -0.28698844 0.058092188 0.19751903 -0.115974285 0.22635277 -0.34656674 0.39346606 0.1226832 0.27782303 0.1328926 -0.17213024 0.015855882 -0.16947846 -0.0122353 -0.06428602 -0.19102785 0.15073854 -0.024661064 0.22206336 -0.29276732 -0.64847124 0.08876932 -0.082229234 -0.2591871 0.14475599 -0.16173853 -0.4017025 -0.23603411 -0.0018537375 -0.015760772 -0.06510663 -0.13423541 0.020699935 -0.12697306 -0.02800262 0.34411514 0.2977604 -0.29380798 0.15459085 -0.4735345 -0.2957054 -0.3438239 0.40215427 0.38646618 -0.27401912 0.22050886 -0.113863274 -0.02481412 -0.090636894 -0.13741913
2682 0.21975544 -0.4052664 -0.0012587709 0.24260272 0.021912225 -0.2737692 0.36786732 -0.31571257 0.41562578 0.18512328 -0.4942366 -0.2995807 0.42073736 -0.116027944 -0.20100181 -0.68803114 0.135521 0.18820961 -0.18809772 -0.24085806 -0.2561479 -0.15829091 0.34922665 0.21076648 -0.07252697 -0.049688157 -0.18208683 -0.011650369 -0.0027664385 0.09095714 -0.5355318 -0.21611553 0.10235928 -0.16010955 -0.35611972 -0.43921664 -0.10190245 -0.23269732 0.46435282 -0.17783858 0.08431476 0.016776014 0.064093664 -0.00083421293 0.22512293 0.33931953 -0.17902696 -0.18508498 0.06162654 -0.3367794 -0.13911419 -0.17636614 0.358806 0.121392354 -0.36969128 -0.08618202 -0.19154842 -0.0024959974 -0.14360523 -0.14552583
2624 0.024822274 -0.20077524 0.0926461 -0.006470263 0.46008316 -0.034487594 0.4411225 -0.048888322 0.40949005 0.0014747162 -0.30084133 -0.078078955 -0.056952298 0.06490985 0.028684089 -0.47928438 0.10845102 -0.00025904208 0.3128804 0.18179928 0.0019594713 -0.13085221 0.21121678 0.20699319 -0.14707989 -0.09468839 0.006453493 0.011024332 -0.09988949 -0.19201577 -0.60007656 0.16715825 -0.10834227 -0.39616728 -0.1065249 0.052000962 -0.32262102 0.11612009 0.0988128 0.04257617 0.23571518 -0.12454241 0.1642341 -0.043972384 -0.08722658 0.4180579 0.6189194 -0.47454238 0.5318745 -0.26659825 -0.07575155 -0.43155995 0.40556484 0.14433222 -0.027195485 0.340275 0.07354127 -0.0048895283 -0.01587446 -0.1334056
2665 -0.1696051 -0.2231046 -0.1522128 0.20855156 -0.032264587 0.19803612 0.3332866 0.1813674 0.28458184 0.20784421 -0.36294013 -0.016092274 0.31452718 -0.56024384 0.16973498 -0.4220301 0.08397337 0.12276017 -0.09956287 -0.05348312 -0.051355537 0.0711973 0.03632113 -0.23542576 0.12287161 -0.19522691 -0.11388203 0.11732449 0.047082003 -0.28251877 -0.5132615 -0.17997678 0.18686377 0.036341872 -0.15042724 -0.31272492 -0.23954317 0.026300874 0.31853983 0.14297077 0.290306 -0.06585774 0.01533088 0.19719864 0.023571875 0.16615757 0.28880298 -0.38398758 0.17317493 -0.45110995 -0.36393955 -0.22473192 0.23133601 0.3574772 -0.3125318 0.5833109 -0.19087614 -0.072290145 -0.33797732 -0.29816663
2691 -0.26485956 0.0375665 -0.13733931 0.1833697 0.102089405 -0.02591643 0.5194147 -0.087622255 0.25329056 0.18101463 -0.2944355 0.21160369 0.43004 -0.4498079 -0.03407512 -0.53698033 0.18856223 0.21732877 -0.004433136 -0.02102856 -0.036863253 -0.0026194113 -0.102842964 -0.013785016 -0.106679186 -0.046373487 -0.2502634 0.20506 0.1800497 -0.4221092 -0.82196724 0.0016730488 0.26957053 -0.105494484 0.17636105 0.02821501 -0.2794594 -0.29766917 -0.0663372 0.06409151 0.09776619 0.2305745 0.24792191 -0.07475847 -0.034921892 0.2429981 0.2768243 -0.40887138 -0.026338862 -0.1963106 -0.18757762 -0.14497493 0.38470197 0.3937998 -0.25513515 0.30312556 0.08944913 -0.00087450515 -0.17186986 -0.27875486
2720 -0.0073873214 -0.211358 -0.07145243 0.511991 -0.12022116 -0.05788013 0.3282477 -0.18442443 0.40433174 0.2130029 -0.16321684 -0.018356899 0.064374946 -0.31372297 0.1515923 -0.63849527 0.3088628 -0.021377573 0.28124836 0.03845507 -0.007908072 -0.1598542 -0.02422599 -0.029849153 -0.11530967 -0.12807924 0.07256618 -0.04027519 0.12551153 -0.05850855 -0.528733 0.12934099 0.0015501949 -0.40928403 -0.10635966 -0.012648228 -0.31011122 -0.16294375 0.0168528 -0.16485678 -0.15714471 -0.13800709 0.25173208 -0.28983998 -0.14607163 0.26410487 0.25806582 -0.2951929 0.2972343 -0.24686265 -0.14929341 -0.01390764 0.33864424 0.28834683 -0.19217807 0.06773757 -0.03560859 -0.15261881 0.039421134 -0.027062204
2716 -0.30131224 -0.072918504 -0.0145739885 0.3324499 0.12599319 0.099398255 0.5044987 -0.21491368 0.36335462 0.22161332 -0.26437137 0.26328048 0.113029845 -0.14845951 0.28963023 -0.39928132 0.44631478 0.115717016 0.10329308 -0.04418867 -0.25149992 0.11597794 -0.10915366 -0.014829547 -0.10122059 -0.21009114 0.19735785 0.050727516 0.13154556 -0.2304005 -0.5950746 0.14823112 0.03650425 -0.4493124 0.029179389 -0.0055753347 -0.2935851 -0.1324431 -0.12586758 0.039254926 -0.06689545 -0.17622542 0.055271685 -0.16342998 -0.18616533 0.48849386 0.28230467 -0.27893227 0.28478387 -0.4898933 -0.290125 -0.16949604 0.4104123 0.5697507 -0.09527008 0.3101517 0.018243931 -0.21400082 0.063556716 -0.24310037
2654 0.0046058586 -0.3728718 -0.10536407 0.0047190213 0.112531655 0.026998192 0.6389672 0.06030441 0.20093684 0.16632572 -0.4029956 -0.09041183 0.21895011 0.05365096 -0.22016722 -0.37039453 0.08450541 -0.14768957 0.079125285 -0.04801692 -0.16135764 -0.11778816 0.25898686 0.03922494 -0.20689929 -0.27994204 0.11782839 0.11743404 0.017230963 0.09234411 -0.48640916 -0.027312651 -0.15318367 -0.17768073 -0.19304544 -0.34563237 -0.12199182 -0.04478056 -0.08341261 0.0037690944 0.32942814 -0.044341274 0.33092803 -0.26562145 0.32522967 0.65853703 0.14718902 -0.6414868 0.12177522 -0.46508163 0.22321041 -0.06414653 0.5330357 0.17453529 -0.07366279 -0.16274387 -0.14377688 -0.25650835 0.014769101 0.21870169
2677 0.06444789 -0.33190936 -0.13006988 0.019062957 0.034710266 0.09910269 0.47417706 -0.42240384 0.48729956 0.1497991 -0.4971975 -0.16199467 0.42707077 0.027194055 -0.14339902 -0.29941085 0.079031125 0.15186153 0.015267381 -0.09057079 -0.102695815 -0.2054929 0.1931409 0.013967622 -0.18990774 -0.10881285 0.046853773 -0.24979037 0.13582617 0.1866707 -0.4994886 0.02100294 -0.057800375 -0.18051185 0.027212003 -0.4622117 -0.13116048 -0.20803045 0.16025221 -0.18352628 0.020758884 -0.0071879867 0.14658344 -0.24726655 0.32667428 0.64931834 -0.09242917 -0.22529198 0.29231343 -0.55390805 -0.044802185 -0.1608936 0.21467838 0.22270493 -0.24591759 0.1915682 -0.30725673 -0.06365241 -0.10800184 -0.31099918
2713 -0.15561707 -0.25102052 0.114634305 0.11829333 0.071250245 -0.08417607 0.4387903 -0.041762304 0.3179167 -0.032542903 -0.32914248 -0.062440466 0.017326346 0.16104604 -0.008625385 -0.48481545 0.12285892 -0.10513088 0.2304341 0.18805315 0.052170046 -0.2800875 -0.051384717 0.36361325 -0.07428309 0.01372294 0.23466557 -0.14202473 -0.09023256 -0.34946516 -0.578234 0.19107723 -0.10002334 -0.61252177 -0.080005825 -0.20371841 -0.27010483 -0.080978766 -0.1455485 0.06533586 0.18783116 -0.16683793 -0.028156975 -0.16360492 0.03971486 0.65863603 0.4307643 -0.40892282 0.41812828 -0.5237822 -0.16001166 -0.10090923 0.49714875 0.16819474 0.007870368 0.23600712 -0.03461114 -0.15306206 0.22189522 -0.034245167
2617 -0.3420556 -0.030467056 -0.15239364 0.3175801 0.12278815 0.21990916 0.23570113 -0.079400524 0.2952154 0.41477093 -0.40308607 0.054699156 0.3280033 -0.19417502 0.0694586 -0.17932914 0.10968672 0.28740552 -0.21704186 -0.014316287 -0.08374292 -0.1435235 0.12565094 -0.2900899 -0.09377105 -0.20841354 0.12454813 0.037259452 0.17077103 -0.2178459 -0.43686807 0.111978725 0.21197815 -0.24631506 0.15320022 -0.39984936 -0.15047425 -0.22859488 0.3397177 -0.17626329 -0.08307084 -0.08025953 0.086356185 -0.06592864 0.19862044 0.28951797 0.42018077 -0.35668543 0.27754673 -0.3712243 -0.46244138 -0.12963171 0.19307037 0.7331453 -0.1117734 0.46746013 -0.1274116 -0.13660744 -0.47284728 -0.1826503
2609 -0.22024025 -0.116241544 0.12693737 0.22072883 0.3688378 0.26214108 0.49489945 -0.1641857 0.41379932 -0.1904862 -0.21285075 -0.00883388 0.11903359 0.11269943 -0.016892815 -0.37792432 0.19437066 0.042015504 0.27507976 0.31422845 -0.044749226 -0.09730407 -0.06402461 0.32458797 0.0008853483 -0.24983253 0.1755491 -0.09845082 -0.041661162 -0.19398023 -0.66457844 0.2732851 -0.07853693 -0.46622998 -0.09912313 0.040466145 -0.23079461 -0.11761908 -0.12433825 -0.034502648 0.24899831 -0.21975818 0.17037396 -0.14857121 -0.023766961 0.49243036 0.46108183 -0.5166905 0.4799411 -0.4632396 0.05562313 -0.15346597 0.4227675 0.37045905 0.12707919 0.4700434 0.14146933 -0.037100382 0.08101482 -0.09158297
2669 -0.096787825 -0.26968572 -0.321819 0.16292313 -0.03910718 0.19091439 0.29631445 0.18921857 0.3334627 0.24151376 -0.4066448 -0.039426018 0.08497845 -0.4482678 0.14955434 -0.3397443 -0.030577278 -0.09737963 -0.19652411 0.054369796 -0.061120816 0.07874775 -0.006315961 -0.109150566 -0.07995018 -0.24522708 -0.25254712 0.124931544 0.14593443 -0.27190897 -0.36528072 -0.32792175 0.05654327 0.116240874 -0.11168332 -0.10011188 -0.28671077 0.077205606 0.40668848 0.06875158 0.51515067 0.01206343 0.12801558 0.40077788 -0.123085245 0.040068544 0.39304042 -0.42408487 0.1252482 -0.41375497 -0.46024397 -0.119366765 0.20033918 0.4245346 -0.44683173 0.59695077 -0.03297088 -0.2829259 -0.2321821 -0.46558374
2631 -0.20945369 -0.5007253 -0.042297445 -0.24742937 0.05730684 -0.24679759 0.12299767 0.038222812 0.17831689 0.046732392 -0.40103623 -0.22437705 -0.012269961 0.06600849 -0.46886447 -0.46845415 0.07085706 -0.1485069 -0.20538592 0.18378384 0.053356305 -0.14170113 0.31341252 0.20897308 -0.2276253 -0.30635184 0.22808795 0.21075176 -0.09189656 0.39641324 -0.5151919 -0.27922398 -0.64563084 -0.14292778 -0.07112966 -0.13235709 -0.098081574 -0.052713297 -0.01773493 0.19317295 0.3304101 -0.15648888 0.14793661 -0.17320472 0.26960963 0.47553462 -0.04430261 -0.32150474 0.31978804 -0.44661948 0.18895568 -0.0890417 0.2547198 0.09353868 -0.12849538 -0.45120126 -0.23546606 -0.44762945 -0.030833526 0.090672664
2632 -0.045765292 -0.065623775 -0.27902976 0.26588088 0.009470175 -0.17487408 0.39268056 0.098828234 0.44690457 0.09735364 -0.3836107 0.15886067 0.39434347 -0.5137317 0.20477088 -0.2821971 -0.043323465 0.078182966 -0.09024737 0.034318697 -0.0033393495 -0.0068603717 -0.06631386 -0.2708323 0.0009019239 -0.15754136 -0.13278003 0.15895422 0.06644191 -0.22593561 -0.59314054 -0.063801475 0.12259067 -0.031821396 -0.21772368 -0.09589293 -0.25905782 0.0054967417 0.21188357 -0.02518161 0.42213628 0.051814888 0.2237771 0.2446498 -0.08515363 0.12927069 0.43217334 -0.4236345 0.027985958 -0.27984476 -0.5966061 -0.09192312 0.3944763 0.37815583 -0.21204446 0.59621054 0.14505279 -0.07280732 -0.28934938 -0.43699372
2679 -0.29134253 -0.095046245 -0.25304982 0.28914857 0.2422036 -0.0495961 0.45748395 0.044677887 0.17162704 -0.081864946 -0.15119906 0.21921614 0.3612765 -0.45707774 0.103247836 -0.3945086 0.08741243 -7.848975e-05 0.16254959 -0.23103024 -0.14026392 0.02998263 -0.03114279 -0.0065556695 -0.19970885 -0.13594268 -0.24599873 0.03899785 0.2622023 -0.3038393 -0.53354156 -0.02291789 0.027311163 -0.13231546 -0.29375294 -0.03710586 -0.31401816 0.07035227 0.037346452 -0.10920002 0.2931094 0.040546693 0.3925774 0.17637853 -0.14663854 0.15665442 0.36104292 -0.47826642 0.057503454 -0.22347465 -0.40198064 -0.22212452 0.5083337 0.2486151 -0.06917359 0.4122753 0.18125075 -0.14373276 -0.19655892 -0.3156261
2611 -0.40501982 -0.07511266 0.22985475 -0.13815498 -0.053900294 -0.18307234 0.009385564 0.18365732 -0.06461891 0.15176466 0.10879578 -0.24440509 -0.041490175 -0.31125838 -0.31487104 -0.028063871 -0.023581848 -0.011547805 -0.21804228 0.631554 0.08234226 -0.036853414 0.11537602 0.11210614 0.1128724 -0.1750159 -0.11164503 0.16129631 -4.6767727e-05 0.16763483 -0.5767387 -0.21027294 -0.7335673 0.064708866 -0.06124203 0.12765196 0.033804726 0.09582134 0.14059597 0.407037 0.45755863 -0.313416 0.03241386 0.6313626 0.047107913 0.09046013 -0.10857724 -0.28273556 0.32926717 -0.53388643 0.11907998 0.15612549 0.29066887 0.35240155 -0.017439933 0.32904053 0.070180066 -0.7411047 -0.46841002 -0.6614393
2707 -0.4925561 -0.1959091 0.16116835 -0.1607865 -0.01735653 -0.20489037 -0.19425578 -0.123411156 -0.19202988 0.04634004 0.011398237 -0.26636317 -0.061638433 -0.25734052 -0.60215956 -0.24520467 -0.027084807 -0.10441062 -0.2485629 0.6119195 -0.10330389 -0.15802626 0.30557555 -0.18934497 -0.08320438 0.025396153 -0.18318586 0.3512534 -0.063307196 0.31150213 -0.2931342 -0.021910008 -0.7358588 -0.000458652 0.053380087 -0.054442406 -0.014724071 0.3177113 0.34661657 0.26961637 -0.077958174 -0.40587264 -0.023235714 0.27236298 0.42582855 -0.068727635 -0.12552567 -0.26230806 0.3420361 -0.6684851 0.2867751 0.00083827745 0.39351282 0.27929306 -0.10108657 0.06456584 0.009654611 -0.8295522 -0.36275524 -0.58885247
2661 -0.47785565 -0.25872424 0.21253361 -0.33232075 -0.05379506 -0.17103949 0.15220259 -0.010783617 -0.08623397 -0.0014666847 0.006542459 -0.24198464 0.048809387 -0.14245039 -0.35156342 0.0367655 -0.121293046 0.091418505 -0.12582454 0.71061176 -0.17795077 -0.19458574 0.25916204 0.095301375 -0.22152117 0.015492019 0.2774032 0.31752262 -0.09802696 0.18629915 -0.30931383 -0.14483193 -0.9398507 -0.013472601 0.2640228 0.04128623 -0.0227908 0.11545459 -0.020930935 0.40089366 0.3522238 -0.4356397 0.2614547 0.21387485 0.06342461 0.17697975 -0.13682652 -0.16132973 0.33509898 -0.52589625 0.24416414 0.10487753 0.46083164 0.43878278 0.12080474 0.07103215 -0.00033454417 -0.73104835 -0.15630393 -0.52779984
2650 -0.46812356 -0.2379146 -0.06550232 -0.058809265 0.040340275 -0.048896454 -0.15517676 -0.06282822 -0.12153652 0.11835872 -0.08572667 -0.29589596 0.10292902 -0.41261116 -0.3219105 0.19009702 0.15211923 0.048114456 -0.16836327 0.44399723 -0.16410534 -0.07123247 0.09511489 -0.08057515 -0.0057472317 -0.1981146 -0.058786448 0.39439914 0.049238715 0.096927665 -0.4918961 -0.09476887 -0.5578701 0.00067037134 0.3004793 -0.11810634 -0.038082052 0.2854469 0.17683747 0.43725392 0.24775812 -0.12410807 -0.057880193 0.35922956 0.13596515 0.2470782 -0.273682 -0.20518161 0.53258336 -0.6512881 0.025110252 0.059278816 0.097637475 0.38674468 -0.15151629 0.25971788 0.06978651 -0.718322 -0.4736232 -0.6299678
2640 0.2184455 -0.33455992 -0.20480186 0.19560558 0.14852354 -0.10483597 0.58177763 -0.14597839 0.24084798 0.36887294 -0.57508385 0.108893916 0.6115621 -0.46089014 -0.54301065 -0.43567318 0.16084589 -0.030837014 -0.3278197 -0.2761565 0.046078455 -0.30461648 0.33236966 -0.017441262 -0.18715861 -0.022694442 -0.13117656 0.16282474 -0.029731464 0.2337525 -0.512069 -0.03562187 -0.0019513252 -0.23583122 -0.11736431 -0.4486674 0.17130907 -0.28816953 0.14958914 -0.16888957 -0.0860762 0.04748039 0.13859889 -0.2608579 0.19933012 0.24193157 -0.10713239 -0.2441948 0.011363304 -0.3157285 0.008168757 0.04554816 0.5430064 0.18564378 -0.20808947 -0.02558423 -0.39087698 -0.33426085 -0.17560375 0.18722454
2683 0.0042116693 -0.12995397 -0.17217971 0.21827964 0.16391274 -0.15487455 0.59009635 0.080356434 0.33459106 -0.10716756 -0.3975176 0.075231 0.19787157 -0.23634493 -0.18984313 -0.4381601 0.00361306 -0.012203247 0.12685706 -0.057414014 0.00055106106 -0.17617665 -0.12384134 0.18962935 -0.12398054 0.18651724 -0.06179156 0.10553845 -0.29983985 0.032808412 -0.7284196 0.089779094 0.041073028 -0.4179979 -0.21044157 -0.05598202 -0.094668314 0.14794642 -0.123472296 -0.11647294 0.40870938 0.13965772 0.35623726 -0.22355376 0.11735112 0.28164425 0.3264336 -0.2866747 0.4139082 -0.4506039 -0.22629465 -0.103365265 0.750926 0.218949 0.13329527 0.19218285 0.13911273 0.03253339 0.18104188 -0.035294805
2628 -0.07615739 -0.34570518 0.014677514 -0.16081825 -0.18868037 -0.13269801 0.0654828 0.022530401 -0.07071937 0.16418236 -0.2852529 -0.22838074 -0.105185315 -0.33951402 -0.60755193 -0.2972994 0.12727204 -0.0066969455 -0.3288902 0.3195049 -0.002004148 -0.5406349 0.13968432 -0.025676927 -0.18708402 0.0063382583 -0.1227681 0.36756063 -0.29458416 0.49488991 -0.36670494 -0.14640103 -0.54067934 -0.07404126 -0.16003187 -0.05672918 0.24742988 -0.036822952 0.030496879 0.21641867 0.44171664 -0.048342817 0.16675374 0.2874748 0.024577139 0.09174207 -0.2532588 -0.31432337 0.14766496 -0.14390412 0.05796054 -0.04855484 0.50164896 0.35325772 0.058285274 -0.36660883 -0.14419982 -0.7518547 -0.24926387 -0.22594224
2613 -0.31097645 -0.22648263 0.09448186 0.105827875 0.048402175 -0.031697292 0.23009901 0.15188238 0.46077582 0.32319525 -0.3992597 -0.11340801 0.1431489 -0.14751138 0.3377652 -0.43872127 -0.13167174 0.11555368 0.012403873 0.040593136 -0.09339635 -0.11483229 -0.2121055 -0.13793197 -0.015008806 -0.21579637 0.045886837 0.020052832 0.3135704 -0.40245515 -0.4673536 -0.053612314 -0.05184468 -0.16924834 -0.008911346 -0.20472221 -0.3837651 -0.13100618 0.3989979 0.18362854 0.16281933 -0.29241747 0.09157936 0.23480172 -0.07226179 0.46993223 0.33371735 -0.3353496 0.11869123 -0.39963016 -0.45844287 -0.16796309 0.040956832 0.16225636 -0.43242204 0.77149236 -0.02997248 -0.25637224 -0.26235816 -0.33106712
2675 0.0981512 -0.2553817 -0.07618742 0.29348138 0.12456693 -0.14782009 0.043856554 -0.095774435 -0.05551918 0.33180916 -0.4702131 -0.15470946 0.22443351 -0.35371256 -0.70084834 -0.54691344 0.08374466 0.0051745293 -0.27659875 0.25744095 -0.010113647 0.000272389 0.29690853 -0.23125167 -0.29010287 0.018050456 -0.2512623 0.36823112 0.062392924 0.36852407 -0.28864014 -0.10912178 -0.3041758 0.035038862 -0.2865834 -0.16866378 0.17752816 -0.08320132 0.32607278 -0.06310764 0.046550643 -0.01974112 -0.030078573 0.206633 0.5199959 0.07364803 -0.4587758 -0.40438345 -0.057470456 -0.5414817 0.032547526 -0.08432338 0.32747144 0.09418086 0.042907357 -0.12987036 -0.13479206 -0.4839423 -0.52859145 -0.32014796
2712 -0.2592967 -0.38867497 0.27799 -0.35414 -0.29692945 -0.189004 -0.21367157 0.025875485 0.036745675 -0.11060949 -0.3464717 -0.3256475 -0.061130084 0.01847358 -0.45197293 -0.30773374 0.1634772 -0.048690747 -0.20275356 0.51879036 0.12305051 -0.3964404 0.2764477 0.29069096 0.109270394 -0.13453853 0.28829467 0.37709343 -0.0074305898 0.36358216 -0.32326448 0.04290831 -1.0329528 0.0371941 0.005434936 -0.042868342 0.033286124 0.13724244 0.17000966 0.09749898 0.25493065 -0.3526812 0.20651335 0.3885429 0.28087705 0.26974106 -0.044020496 -0.28986073 0.48241714 -0.42041293 0.12635803 -0.05923418 0.23533337 0.27234897 -0.086806506 -0.1464338 -0.10233999 -0.7049276 -0.1489215 -0.26416886
2667 -0.33493125 -0.14695445 -0.20993122 0.05392491 0.15126409 -0.103954956 0.053954385 -0.100997284 0.22571102 0.14781876 -0.08737226 0.13812879 -0.1766613 -0.19981563 -0.17967504 0.10112931 0.08243571 0.11441609 -0.3187601 0.34772405 -0.14247301 -0.12580551 -0.03665095 -0.0007120267 -0.017553395 -0.32171604 0.22489205 0.15867968 0.1928903 -0.087161735 -0.4722396 -0.20895356 -0.481787 0.15512647 0.32749254 0.004035263 -0.21099554 0.063002646 0.28567535 0.39084047 0.26957938 -0.2602659 0.017988482 0.46581066 0.006455046 0.32478726 0.03556671 -0.32737902 0.34917292 -0.36377865 -0.21679386 0.0320822 0.16056614 0.51567066 -0.10540028 0.4863618 0.005237736 -0.65004146 -0.5238789 -0.794404
2735 0.11803494 -0.2504728 0.0030251287 0.32153976 -0.012455514 -0.27805135 0.36065874 -0.48614892 0.45633742 0.22572091 -0.29896376 -0.07079712 0.40323433 -0.08955847 0.24158163 -0.6191387 0.22816916 0.20057301 0.17057504 -0.44119203 -0.047666132 -0.23874873 0.44520277 0.012876899 -0.10889438 -0.007898343 -0.03358369 0.02562903 0.016945103 0.10549688 -0.58555764 0.009867446 0.2746782 -0.4135295 -0.21994427 -0.5756761 -0.21328214 -0.42120996 0.3208918 -0.31494534 -0.19856466 0.20506124 0.3566474 -0.27420643 0.15531173 0.3224248 0.2162187 0.04910195 -0.10271288 -0.52047145 -0.091672845 -0.0067472635 0.4604001 0.32412362 -0.38942033 0.27865306 -0.19595805 0.022536526 -0.27384156 -0.10228783
2710 -0.041910477 -0.058261786 -0.33198464 0.52440953 -0.048299983 -0.07607953 0.75990194 -0.10220938 0.23005402 0.17604953 -0.55693 0.17548195 0.44715688 -0.3804014 -0.13927507 -0.39267993 0.02215261 -0.06448147 0.0059623066 -0.1677823 -0.1859363 -0.29004002 0.15006365 -0.028670708 -0.0025892681 -0.2448753 -0.12839411 0.106848605 0.109714635 -0.009269799 -0.59666675 0.2287883 0.30223098 -0.3879298 0.005644648 -0.1671003 -0.3867308 -0.20422862 -0.13912247 -0.061300017 0.046631973 0.2752664 0.3953098 -0.16017723 0.20880322 0.37011507 0.12933184 -0.20311631 0.22775273 -0.43506697 0.21311976 -0.016214453 0.48307204 0.2558944 0.05977146 -0.0971482 -0.14781182 -0.10347466 0.0029407868 -0.104960345
2639 -0.63033503 -0.055481017 0.26840985 -0.07339627 -0.019578198 -0.16517702 -0.31474754 -0.1081821 -0.112717934 0.1175112 0.05106475 -0.13812117 0.033138126 -0.16604051 -0.48107457 0.06173676 0.23815885 0.15510894 -0.058784105 0.5048171 -0.021745255 -0.35814768 0.3590597 0.27090698 -0.07201773 0.10258437 0.04857567 0.23471685 -0.23310772 0.23478246 -0.5850152 -0.063655175 -0.88650966 -0.036750183 0.22665209 0.21193308 0.079409145 0.3829965 0.037649207 0.44035038 0.31878167 -0.33445647 0.43135995 0.39586294 0.014129554 -0.16968633 -0.37227625 -0.16156743 0.39588955 -0.5835996 0.19975458 0.274149 0.32040143 0.35350555 0.35274053 -0.01819847 0.03555778 -1.040294 -0.20335369 -0.72126955
2678 -0.33420053 -0.0045199622 -0.22654137 0.25063944 -0.16001667 -0.17323297 -0.06375369 -0.03753069 -0.15893236 0.267974 -0.28656417 -0.18789852 0.036260128 -0.2591894 -0.8505836 -0.21989597 0.27012122 0.09328909 -0.5268128 0.59611857 -0.012145815 -0.36219975 0.2627907 -0.24948701 -0.18113957 -0.11473137 -0.17385375 0.23470369 -0.1524412 0.4581441 -0.45060167 -0.056434404 -0.49941805 -0.0034482758 0.0909441 -0.13903059 0.32177824 0.10466743 0.09271292 0.103345685 0.045924794 0.024167208 -0.12179228 0.25912166 0.22055538 -0.006914452 -0.338015 -0.29528958 0.13315845 -0.4480765 0.16530833 -0.1441657 0.37084854 0.25334737 0.13552845 -0.040650785 0.0466033 -0.8460054 -0.57653296 -0.44461071
2725 -0.27892506 -0.25969937 0.073452294 0.33914512 -0.12577707 -0.031334747 0.33866796 -0.08000927 0.45799622 0.24646804 -0.3595658 0.11670565 0.37662387 -0.40987378 0.45999473 -0.49828538 0.10508347 0.071550734 0.2623924 -0.120835125 -0.0076486575 -0.14363244 0.015490781 -0.29976243 -0.081652984 0.03742857 -0.06667354 0.12571135 0.13133876 -0.35436153 -0.7920806 0.107500814 0.26262495 -0.3551831 0.17425644 -0.5595518 -0.23681259 -0.027321134 0.14931974 0.013392098 -0.031641938 0.06468393 0.39576784 -0.2454548 -0.011248624 0.10348231 0.3574425 -0.19779037 -0.093161106 -0.11574506 -0.24490054 -0.01393895 0.3903049 0.36235416 -0.40353352 0.4355735 -0.18884638 0.14054865 -0.34605083 -0.016903717
2732 -0.027555034 -0.2765528 0.0048010508 0.35128582 -0.22094361 -0.076786354 0.23693417 -0.16334485 0.52351105 0.41554186 -0.16395777 -0.016265426 0.5692848 -0.24651508 0.25776836 -0.6029115 0.32652205 0.1831309 0.09522145 -0.13200252 -0.06380799 -0.18036643 0.25613904 -0.016857957 -0.1914683 -0.03153621 0.08734611 -0.05512257 0.047660638 0.102010205 -0.68523 0.099351116 0.23653907 -0.23901907 -0.09913594 -0.38100636 -0.27191818 -0.13225333 0.110765226 -0.4549247 -0.0885959 0.21865308 0.40908182 -0.36219427 0.09025015 0.31825486 0.440243 -0.05703501 -0.042600263 -0.24201201 -0.18578942 -0.14213634 0.456236 0.42054927 -0.42816037 0.26718053 -0.16357598 -0.025892878 -0.19531369 0.160353
2714 0.058511887 -0.13361089 -0.07790114 0.1645472 0.09429552 -0.11748788 0.5940247 -0.043634903 0.13105986 0.173619 -0.2950848 0.27452996 0.16058436 -0.32860404 -0.22827727 -0.48531365 -0.052805256 -0.041961342 0.33977795 -0.0478797 -0.08614934 -0.27702034 0.044263136 0.15514573 -0.36797643 0.13595976 -0.23765914 0.1015434 -0.16492726 0.018554084 -0.79884976 -0.17670992 0.09717883 -0.11172603 -0.6055344 -0.21452452 -0.3561121 -0.0066638053 0.06590449 -0.26461917 0.217178 -0.027323175 0.35155094 -0.32405192 -0.009362104 0.402788 0.16754453 -0.535984 0.26726136 -0.32389075 0.10968058 -0.049179986 0.6604079 0.08910327 0.11490569 -0.20523082 -0.14025807 -0.093461744 -0.06342855 0.16140679
2717 -0.2121744 -0.46723768 0.10129563 -0.044201694 -0.0861348 0.19633712 0.45339572 -0.37185752 0.4693864 0.26416996 -0.49990138 0.013108061 0.15294394 0.09223618 -0.2794695 -0.38902932 0.079032294 0.030692482 0.0239259 -0.037280113 -0.09954181 -0.18400013 0.08853177 0.34877467 -0.15483947 -0.3283843 0.4658077 0.0429679 -0.07545323 0.28919432 -0.5938947 0.16284794 -0.28001308 -0.25052437 0.07112963 -0.30339423 -0.25608724 -0.30147907 -0.12325925 -0.04674089 0.12395808 -0.09305591 -0.07210604 -0.37885493 0.23249638 0.87298477 0.14132448 -0.26716706 0.24154644 -0.5672711 0.19812405 0.08083534 0.51122016 0.5038052 -0.04436717 -0.068257466 -0.28559762 -0.08521647 -0.105510496 0.3443649
2741 -0.13038327 -0.14773072 0.05935932 0.34437728 -0.016269505 0.041409615 0.08649506 0.02739458 0.5200063 0.36427265 -0.17458802 -0.06763612 0.5092915 -0.3350185 0.2877592 -0.6167563 0.10681492 0.16513707 0.2423174 -0.09391507 0.06943312 -0.20217606 0.26260942 -0.17741627 -0.22182573 0.026037497 0.052847642 -0.015812779 0.24329698 -0.18262532 -0.77474684 -0.022998942 0.17043649 -0.24085763 0.03136971 -0.42209482 -0.23139949 -0.20159566 0.3029576 -0.2116775 -0.20307016 0.05643875 0.30080783 -0.30047026 0.124369174 0.06557256 0.3141084 -0.3134684 -0.10647502 -0.17589116 -0.401021 -0.040405437 0.51531374 0.43305853 -0.5347202 0.24841924 -0.22179556 0.17456286 -0.28692254 0.21633855
2726 -0.3192433 -0.16520207 0.19931331 0.5467053 -0.13384643 0.03293517 0.21165043 -0.033035975 0.3568544 0.32485992 -0.2823912 0.17401853 0.44890428 -0.58976704 0.43413606 -0.6286415 0.15334447 0.028741283 0.35328948 -0.15263127 -0.01951637 -0.21717826 0.2846161 -0.22035897 -0.09826066 -0.06065463 -0.07041617 0.13655685 0.12111469 -0.33623558 -0.5708342 -0.032575205 0.35899797 -0.13074139 0.11111415 -0.50028855 -0.25031006 -0.08436209 0.35430288 0.04144287 -0.018929884 0.042373337 0.29573116 -0.23425426 -0.030448552 0.1785617 0.3956582 -0.28836742 -0.056059077 -0.36431783 -0.32996464 -0.090750076 0.25796148 0.3528986 -0.29128033 0.5898209 -0.20800199 0.14588355 -0.31363517 0.08273657
2693 -0.14414564 -0.11373627 -0.024329413 0.42001215 0.27659166 -0.055093303 0.7107523 0.07661991 0.07341187 -0.19936478 -0.5259994 0.017099047 0.06498 -0.12501772 -0.0895273 -0.36834204 0.15163635 0.060310863 0.32181376 0.050471786 0.21791677 -0.02554944 0.112833366 0.07734861 -0.07068284 -0.14968812 -0.3402846 -0.031635042 -0.23249817 -0.14348634 -0.5956631 -0.0039465483 -0.05657081 -0.4293234 -0.2849326 0.16726115 -0.21888316 0.16983205 -0.23738828 -0.22486658 0.26220173 -3.0634765e-05 0.4125701 -0.16223341 0.07908366 0.43951944 0.266579 -0.4781698 0.3522368 -0.2547356 0.06245962 -0.22410609 0.6576684 0.3214367 0.23792581 0.39192295 0.3807008 -0.074537195 -0.030785501 -0.23312834
2658 -0.4928288 -0.1775758 0.3405558 -0.093740694 -0.2664229 -0.18606721 -0.3603939 -0.16186862 -0.11648649 -0.1975689 0.17430313 -0.50792426 -0.17590314 -0.3221605 -0.54163563 -0.16936013 -0.0827785 0.1015849 -0.12902008 0.7746701 0.051854797 -0.46225327 0.12314871 -0.13569197 0.047904953 0.12350107 -0.11509016 0.4969251 -0.082363814 0.33015606 -0.44275254 -0.100956984 -0.96502393 0.0016483847 0.2301116 -0.021780768 -0.04816673 0.2790298 0.41658556 0.12784156 -0.0072764065 -0.4199975 0.27571535 0.5694933 0.31002313 -0.08402994 -0.45121536 -0.28981817 0.46645492 -0.5234644 0.4126558 0.043500867 0.30086657 0.3995398 -0.08202704 -0.0828085 0.11411918 -0.99486375 -0.23385572 -0.8082249
2728 -0.38172334 -0.10501181 0.17505524 0.5374328 0.01782096 -0.0851854 0.27888644 -0.010481192 0.5274173 0.17198057 -0.38898006 0.23847957 0.42250496 -0.38797992 0.5789419 -0.48703846 0.018146817 0.13817348 0.22978209 -0.2735915 0.0031858687 -0.20460321 0.053094473 -0.4546642 -0.062499683 0.106299736 -0.041786496 0.07556197 0.16724353 -0.26425433 -0.6821296 0.05271438 0.064525254 -0.25542185 0.062448416 -0.43358368 -0.30249804 -0.15157002 0.29179373 -0.077608034 0.22023523 -0.1158184 0.41888514 -0.21892147 -0.1917548 0.11138083 0.49044093 -0.23479225 0.047030073 -0.2952286 -0.31836247 0.018796155 0.27912724 0.19056872 -0.41609514 0.5551283 -0.20204052 0.15483522 -0.22699131 -0.09863284
2612 -0.48456252 -0.09210722 0.1985083 -0.1604087 -0.33783013 -0.34426215 -0.40888143 0.08982312 -0.28021792 -0.04834739 0.19894145 -0.13264756 -0.11204347 -0.28182137 -0.4825074 -0.19697945 0.2560529 0.07089237 -0.042672474 0.9218745 -0.09294027 -0.27910852 0.5683592 -0.097243726 0.0565747 0.038041048 -0.087655716 0.19030808 -0.034216676 0.60232174 -0.57813036 0.016707087 -0.68796307 -0.0022393637 0.20040895 0.031587888 0.21907566 0.37323996 0.25621992 0.19214931 0.60561186 -0.21890797 -0.090501 0.68422186 0.03206858 -0.58596694 -0.3713929 -0.3696023 0.4944739 -0.579251 0.4714252 0.24008363 0.35859793 0.5243135 0.057577603 0.006164682 0.23609711 -1.1311222 -0.29318434 -0.62379444
2709 -0.4371987 -0.44169894 0.4771476 -0.026420793 -0.24230906 -0.1062183 -0.23126292 -0.071090706 -0.14354976 -0.059223197 -0.13370365 -0.36684373 -0.15232186 -0.12910466 -0.6853162 -0.25800148 0.25601742 0.0006946443 -0.32245883 0.44710866 -0.06752502 -0.061826494 0.2458577 0.09410857 0.14456016 -0.10165117 0.16888478 0.29147264 0.1296633 0.39469013 -0.43832672 -0.07021652 -0.9474042 -0.0031498042 0.07863454 -0.2818786 -0.03820432 0.3312433 0.3385967 0.097201444 -0.11832489 -0.29710186 0.008432224 0.34057218 0.4189219 0.095454454 -0.17932582 -0.2888914 0.43050855 -0.72891575 -0.053649023 -0.20370926 0.108685926 0.03509464 -0.22938703 0.06586364 -0.013810151 -0.78069764 -0.39368334 -0.41277152
2615 -0.43995872 -0.079963475 -0.05881263 -0.13365975 0.008275501 0.026229553 -0.028124044 0.0783417 -0.29582575 0.27758405 -0.18948905 -0.15491147 0.00016460978 -0.17152274 -0.7737041 -0.026099658 0.1456786 0.24500364 -0.4482995 0.39227423 -0.045848243 -0.4043282 0.36344102 -0.07105747 -0.18649748 -0.04173397 -0.27340865 0.2536251 -0.1942012 0.14546815 -0.44663334 0.17167066 -0.61179984 -0.17098185 0.23654255 -0.072066575 0.096204504 0.020763392 0.015955921 0.3400915 0.25082582 -0.15683183 0.0335365 0.103071734 0.10399861 0.033085532 -0.2802461 -0.111959636 0.31647336 -0.5516214 0.16676103 0.2928859 0.40856737 0.51630217 0.047869988 -0.11116414 -0.3133188 -0.75780123 -0.23571244 -0.5592435
2745 -0.05431908 -0.29809085 0.0477641 0.43170643 0.077999 -0.16235077 0.43143752 -0.20455222 0.41904843 0.1868283 -0.13165002 0.18269278 0.121053666 -0.34441313 0.39423704 -0.70437527 0.30170813 0.03688082 0.3958822 -0.30754858 -0.078391485 -0.27986607 -0.026635667 0.076089196 -0.22905001 0.055519674 0.2648344 0.027754322 0.13264403 -0.2463042 -0.74978936 0.027611664 0.06601831 -0.46817562 -0.24365722 -0.17369041 -0.12934363 -0.04745971 -0.060281694 -0.23850879 -0.06519864 0.012853874 0.34335274 -0.22512324 -0.39493835 0.26146153 0.4303818 -0.3605951 0.0051220017 -0.45037502 -0.04205026 -0.027320832 0.467501 0.31285992 -0.2761631 0.24428466 0.104395 0.014369139 0.100378156 0.16552098
2692 -0.40549645 -0.065604635 0.2863441 -0.20703492 -0.29031447 -0.22987789 -0.3912538 -0.13545579 -0.17627543 -0.16573675 0.29690716 -0.20918292 -0.056720376 -0.28354806 -0.47222975 -0.024709277 -0.19691116 0.31633356 -0.035909276 0.81077576 0.011179121 -0.41449675 0.30858263 -0.07209885 0.20006742 0.28966165 -0.008527096 0.43824127 0.019728871 0.27127653 -0.64635557 -0.20387723 -1.0981236 0.0074170805 0.3764586 0.14240587 0.23516297 -0.006808189 0.2056738 0.3090259 0.39575225 -0.4511725 0.33927152 0.66268355 0.047310036 -0.029185662 -0.4781492 -0.153157 0.6356316 -0.58272254 0.2765997 0.34489033 0.33703354 0.38257113 0.0703736 -0.11032444 0.097829826 -0.98160934 -0.3153981 -0.70070565
2695 0.14058062 -0.36791834 -0.08860297 0.20175117 0.17346226 -0.1569133 0.7412258 0.17355911 0.070482686 0.21723041 -0.36594805 0.14989768 0.46422064 -0.30051503 -0.15778166 -0.5334455 0.020128611 -0.025643516 0.2178003 -0.03455449 -0.101737425 -0.18678926 0.29285207 0.2274977 -0.3172137 0.17680362 0.0020903167 0.00038235707 -0.39559004 -0.05876141 -0.71375394 -0.3410628 0.0016989028 -0.13448165 -0.52230954 -0.33626038 -0.25746545 -0.14333993 0.049462482 -0.3612138 0.28689045 -0.013443579 0.36488757 -0.28840244 0.11131309 0.18290155 0.14143355 -0.39127815 0.3203786 -0.14508809 0.33746263 -0.09090258 0.8168475 0.037454996 0.036876883 -0.07179689 -0.15583976 -0.27224925 0.21067782 0.06750009
2662 -0.4076878 -0.04386816 0.08382014 -0.14408551 -0.28412288 -0.3101111 -0.2647963 0.060581405 -0.21011141 0.09319998 0.084610276 -0.0899554 0.017284434 -0.17252919 -0.67661214 -0.4050292 0.3886459 0.22246028 -0.03682818 0.8703231 -0.22385211 -0.30208755 0.42151898 0.23757778 -0.027394705 0.15281576 -0.04198055 0.25796765 -0.055235993 0.6035682 -0.4603186 -0.020183241 -0.75956845 0.22835256 0.2904379 0.032103207 0.15833952 0.3622904 -0.0024713462 0.49972096 0.6947623 -0.108929776 0.21986333 0.46550223 -0.17455532 -0.5541124 -0.34473333 -0.20072356 0.34292954 -0.50209373 0.43147254 0.19386455 0.53178275 0.43527514 0.21002874 -0.024937885 0.22206025 -1.0282155 -0.3971929 -0.74757195
2668 -0.44859058 -0.018929077 0.22978307 0.03890851 0.10159249 0.008614926 -0.1844344 -0.18389459 -0.14565597 -0.14562432 0.16731903 0.018372338 -0.3055892 -0.28723472 -0.41834176 0.050457314 0.07071613 0.3673978 -0.15885429 0.6906997 -0.05585498 -0.4117496 0.377456 0.022260452 0.24311784 0.10289813 -0.09823383 0.49515465 -0.037330993 0.37157348 -0.57557386 0.0030369062 -1.0146717 0.026838176 0.38817468 0.2291595 0.09612395 0.21441416 0.47539094 0.4252895 0.16974758 -0.3261184 0.07230348 0.44128454 0.21967442 0.054669235 -0.36610574 -0.113322586 0.49189386 -0.46825165 0.349241 0.022146001 0.4040689 0.48907894 -0.20871104 -0.10830796 0.12222933 -1.0022062 -0.34229535 -0.78844285
2730 -0.28280264 -0.14407682 0.019963242 0.44822973 -0.06744546 -0.09063135 0.012827218 -0.09240006 0.48654225 0.21494801 -0.26386467 0.11996123 0.40710643 -0.6403298 0.4538475 -0.56578785 0.1273853 0.16965133 0.2667926 -0.24480253 -0.120663434 -0.21023656 0.07623464 -0.28457338 -0.114430524 -0.10177112 0.08483344 0.019684454 0.22558841 -0.30574483 -0.7273344 0.08669651 0.24088411 -0.15770897 0.0075111752 -0.42563584 -0.19910447 -0.16687942 0.24710105 0.0429 0.21098462 -0.00032687478 0.35471973 -0.3593027 -0.24602374 0.1442509 0.44237942 -0.3883509 -0.041221246 -0.3104263 -0.51163745 -0.15711008 0.22608934 0.31600735 -0.4306015 0.5728137 -0.2213706 0.09967781 -0.29628876 -0.2959789
2696 -0.46157977 0.108559795 0.25574648 -0.0029047157 -0.047175918 -0.27633038 -0.46296152 -0.14487751 -0.33331487 -0.17151222 0.17089115 -0.20100188 0.08194721 -0.31312588 -0.391289 0.14482544 0.050301634 0.47021177 -0.16803113 0.698745 -0.15466869 -0.41439342 0.42222813 0.040709443 0.05741386 0.009154766 0.024246586 0.33464313 -0.19111176 0.3030277 -0.5352027 -0.12605545 -0.98856753 -0.011231544 0.40483952 0.2685635 -0.09643129 0.27793902 0.20610666 0.26358315 0.40933874 -0.34883207 0.27428165 0.44620314 0.36481023 -0.13263243 -0.42600107 -0.22039963 0.6309994 -0.6164446 0.34099647 0.2227158 0.29614574 0.456037 -0.055067882 0.018723425 0.057830084 -1.0465716 -0.30020598 -0.76022106
2687 -0.5260469 -0.05124342 0.15167375 -0.08751127 -0.13863122 -0.36623687 -0.33752328 0.060145758 -0.24895464 0.23314887 0.35527018 0.024863526 -0.1666738 -0.07473841 -0.50147 -0.0868594 0.18383141 0.29655775 -0.0799812 0.79524696 -0.030400684 -0.3546077 0.57755935 0.15164147 0.20422487 0.4096434 0.0011134256 0.35509887 0.17260252 0.6889358 -0.6810813 0.0739302 -0.7681924 -0.031689893 0.17842326 0.1686488 0.1581049 0.30917436 0.018339595 0.35226765 0.45754445 -0.25929773 0.067729354 0.6712053 0.13477504 -0.5129113 -0.49249166 -0.31322744 0.56974036 -0.49876207 0.31951737 0.23827979 0.31970334 0.55576175 0.13877313 0.28701136 0.18877244 -1.0399053 -0.30453855 -0.67120457
2656 -0.36536872 -0.044593845 0.37737375 -0.1480099 -0.35916513 -0.26352233 -0.45622656 0.06752152 -0.1591411 -0.0508331 0.047790717 -0.06738251 -0.12575951 -0.25934517 -0.5290253 -0.32168964 0.34433055 -0.0111174965 0.02241689 0.91317946 -0.058959585 -0.4646357 0.5395857 -0.052285273 0.046281464 0.024403313 -0.038387887 0.11068856 -0.069104984 0.62884307 -0.44823772 -0.09753324 -0.7384348 -0.038236283 0.109168164 0.06845266 0.30572215 0.3740469 0.22539005 0.4090174 0.6373372 -0.29347998 0.063202806 0.5444501 -0.10840599 -0.44602343 -0.33649078 -0.26674372 0.42468578 -0.51030517 0.5165799 0.3242856 0.33269712 0.52536446 0.13959265 -0.048812572 0.5179902 -1.0793035 -0.31243467 -0.70309514
2704 -0.39866525 0.17468695 0.50812864 -0.291443 -0.1708448 -0.38442096 -0.39929214 0.1579587 -0.06973415 0.07444078 0.4019601 -0.26604074 -0.017300587 -0.36026624 -0.43004677 -0.18754132 0.17280467 -0.1011643 -0.017045097 0.81429356 0.19834222 -0.2733467 0.3162277 0.1747252 0.019321663 0.09740773 0.08213152 0.5272984 0.17233473 0.4528877 -0.5583793 -0.1292432 -0.7591068 0.00782706 0.24363258 0.23552133 0.054614983 0.15655069 0.3063253 0.4317322 0.54312706 -0.2474549 0.10177503 0.6928524 0.07693272 -0.34141868 -0.34475374 -0.27951628 0.2779365 -0.6959759 0.55589294 0.26792637 0.24088974 0.33039716 0.07198219 0.070783794 0.23302451 -1.1315973 -0.45184466 -0.8418003
2736 0.017394723 -0.28585505 0.15715481 0.43368992 -0.09819916 -0.029565314 0.22961044 -0.29689538 0.532378 0.41544458 -0.21733099 0.25848305 0.6305701 0.099338725 0.085554995 -0.57667476 0.08202103 0.036026318 0.16067055 -0.28449297 -0.043703277 -0.16158006 0.45252848 -0.25488934 -0.29763502 0.064255215 0.09318633 0.08136532 0.25751925 0.06490544 -0.6884471 0.11378769 0.22694066 -0.19203123 -0.19025838 -0.68336564 -0.30933675 -0.24129112 0.31613457 -0.1946013 -0.048021656 0.20700319 0.18820263 -0.22395541 0.0690347 0.41878164 0.24281394 0.06943052 -0.23874933 -0.3280307 -0.43303612 0.040069725 0.39293152 0.38006806 -0.39818427 0.1710013 -0.18576322 -0.18807332 -0.30216923 0.023923533
2621 -0.46274194 -0.12143725 0.2851261 0.04253031 -0.20010899 -0.3956559 -0.3930036 0.12652649 -0.21032386 0.041190248 0.3054919 -0.06228548 -0.045090158 -0.0810054 -0.54354376 -0.04200724 0.18125454 0.24647163 -0.10134911 0.64815974 -0.056502096 -0.22996655 0.53706205 0.2762663 0.043371327 0.29260263 -0.096429266 0.45091552 0.030923858 0.45469922 -0.62079173 0.07019973 -0.8193919 0.019179191 0.37066677 0.29280832 0.16705035 0.36441973 0.045772087 0.5465527 0.6992617 -0.22249267 0.17261337 0.5605471 0.034763075 -0.49762046 -0.45773906 -0.3423851 0.4886465 -0.59653676 0.49345708 0.3357404 0.3937941 0.5700564 0.2553477 0.17902566 0.1431527 -0.9770549 -0.33306715 -0.6085388
2694 -0.35446703 -0.122206695 0.3178205 -0.24608645 -0.3021189 -0.3146956 -0.44320115 0.15545323 -0.30648756 0.020311585 0.24550493 -0.07593409 -0.1488084 -0.31847188 -0.53659874 -0.11412936 0.08057154 0.051015723 0.041655727 0.8131054 -0.095709994 -0.35471287 0.40941212 0.022770166 0.058798984 0.3522289 -0.07211337 0.32853037 0.13147387 0.50067365 -0.5774873 -0.02980439 -0.79030085 0.0060410723 0.19073993 0.20008904 0.09405179 0.4482505 0.06840148 0.44428888 0.630556 -0.28562126 0.32679355 0.4901124 0.16408572 -0.2886192 -0.36740118 -0.2717898 0.45865664 -0.7438081 0.43689516 0.20661622 0.32434925 0.53878504 0.31629065 0.020101486 0.24182838 -0.9812118 -0.39391923 -0.8195387
2699 -0.5383847 -0.18525751 0.366017 -0.23424749 -0.1674116 -0.3034404 -0.53112465 -0.05856991 -0.16202824 -0.24792396 0.24052797 -0.21388502 -0.12604752 -0.23795515 -0.5210241 -0.06598969 0.039008584 0.06622686 0.017701108 0.7684494 0.0017993437 -0.44924447 0.28221664 0.051485058 0.2105916 0.14583045 -0.15480645 0.5043253 0.11524251 0.5211253 -0.74623185 -0.20478313 -1.0796767 -0.11933612 0.21328141 0.3278208 0.17748974 0.27729356 0.49218902 0.31194076 0.21485193 -0.34455273 0.19848008 0.673733 0.20329462 -0.1018657 -0.33200973 -0.10790082 0.4889705 -0.5402049 0.3672534 0.24898922 0.24981666 0.42955992 -0.03471161 -0.0722434 -0.0067945644 -0.91835624 -0.2286219 -1.0269363
2729 -0.33835313 0.0397922 0.08879554 0.5626744 0.17335302 -0.18566555 0.30143702 -0.069944106 0.35067382 0.0062627597 -0.013444898 -0.05165891 0.33501104 -0.4185354 0.4743212 -0.47450227 0.2667843 -0.027397832 0.4983057 -0.16418341 -0.05153759 -0.4516057 0.0094547225 0.12044587 -0.26754954 0.28738648 0.03258022 0.117459014 0.4175231 -0.4727501 -0.627295 0.055355977 0.057142407 -0.39740044 -0.14796975 -0.15175438 -0.4859152 -0.03111407 -0.04109533 -0.25679252 0.052472226 0.19635049 0.36377546 -0.2924741 -0.3027815 0.14417802 0.51107174 -0.38279042 0.13115133 -0.20040889 -0.31107578 -0.27683124 0.50663924 0.23400706 -0.038251802 0.39121556 0.051979672 -0.024205135 -0.110648505 -0.0151008405
2705 -0.39892522 -0.072984114 0.33750644 -0.30239344 -0.24287517 -0.23579067 -0.58463854 -0.025703514 -0.14497983 -0.30276278 0.16227147 -0.27072653 -0.14494027 -0.41697872 -0.53327 -0.22258008 -0.12821037 0.22635326 0.049817555 0.7989077 0.053796276 -0.45187175 0.2695127 0.11418352 0.19924773 -0.0005376618 0.052494153 0.5852593 0.16938381 0.51445395 -0.60827637 -0.14959884 -0.996801 0.0031073496 0.27607864 0.18524635 0.22972408 0.28647608 0.29523352 0.1910032 0.08739728 -0.5813295 0.15584739 0.58134216 -0.079063974 -0.24866025 -0.16694343 -0.3513273 0.37380427 -0.5483657 0.37336 0.33047286 0.29017177 0.26246566 0.0028483164 -0.11141126 -0.07814975 -1.0034225 -0.31117705 -1.0474685
2747 -0.0031605125 -0.25027663 0.09098186 0.4533464 0.08791716 -0.19374618 0.551303 -0.08154409 0.4740121 0.024309807 -0.13054866 0.2025469 0.23203333 -0.08984063 0.2701742 -0.49950624 0.14547798 -0.18448046 0.40186223 -0.15981413 0.14365621 -0.6673027 0.066432886 0.08133259 -0.08174168 -0.01856758 0.21754576 -0.0034675477 -0.023068137 -0.36730266 -0.9159795 0.3188011 0.14727642 -0.6662917 -0.29708555 -0.15065032 -0.16324557 -0.1497031 0.035081655 -0.1068987 0.06903164 0.23334275 0.22187954 -0.36113873 -0.0215422 0.22027315 0.38437247 -0.22629625 0.16293284 -0.4101888 -0.060908616 0.014965439 0.5641491 0.18398274 -0.077823214 0.18643567 0.03684581 -0.0026342878 0.1194872 0.1286771
2670 -0.46421456 0.047803212 0.38128975 -0.3450724 -0.29353267 -0.36027256 -0.2961577 0.19092913 -0.22174408 -0.09286503 0.4513006 -0.13013892 -0.17656763 -0.20897776 -0.54702324 -0.17858298 0.1346365 0.13310876 0.015754683 0.93239456 0.0062384815 -0.41829556 0.3790622 -0.07399693 0.025390297 0.1362498 -0.034011308 0.44398493 0.09658881 0.48648602 -0.5307041 -0.01502631 -0.827298 -0.0395521 0.121475965 0.123271994 0.2243423 0.25715736 0.16781843 0.3237173 0.44128084 -0.36515078 0.12158684 0.55898 0.13134244 -0.28177032 -0.30752555 -0.28551397 0.45787627 -0.60279936 0.40142494 0.2881721 0.29101938 0.52539414 0.1281625 0.058018185 -0.017697662 -1.1485544 -0.43155015 -0.6674291
2731 0.19131647 -0.23678635 -0.072361924 0.46235067 -0.22804491 -0.09752185 0.41753465 -0.29488632 0.16548328 0.4809525 -0.5131312 -0.07004009 0.5100651 -0.274825 -0.21770206 -0.705732 0.15027021 -0.09790719 0.37100545 -0.41213202 -0.19795224 -0.029917344 0.6074252 -0.25479704 -0.030086024 -0.1778738 0.20698689 0.084103495 0.13664803 0.22642311 -0.6093841 0.17368348 0.12357193 -0.35176325 -0.093561 -0.5559195 -0.08540944 -0.13392343 0.36838126 -0.17284456 -0.36927947 -0.006964106 0.061462954 -0.5593363 0.25756207 0.50985116 0.17325799 -0.0794432 -0.30505612 -0.7154479 -0.17272475 0.10171774 0.32396892 0.04014244 -0.4197693 0.2067614 -0.116010524 -0.17610617 -0.52549344 0.19174343
2715 -0.44553623 -0.26759905 0.19555898 -0.2743751 -0.22049677 -0.17279729 -0.48560482 0.17529953 -0.21816616 -0.311303 -0.013820716 -0.39602605 -0.12212638 -0.425889 -0.53430104 -0.20787434 0.020569496 0.0400222 0.015682315 0.53942084 0.045304544 -0.37485236 0.3520682 0.23809494 0.21866378 0.022181088 0.17366166 0.55972385 0.18153793 0.20893896 -0.35642254 -0.08729769 -1.1394223 0.08415593 0.19475278 0.094225675 0.04247985 0.5358175 0.24529347 -0.05166708 -0.09210665 -0.4297692 0.2899099 0.6772282 0.06682111 -0.021573303 -0.14430973 -0.30484474 0.500482 -0.6106717 0.18690255 0.28254783 0.3274914 0.21910784 0.012340779 0.10519144 -0.06313127 -1.1160537 -0.3442954 -0.8334056
2657 -0.37622163 -0.04587651 0.31394252 -0.024367943 -0.18755928 -0.3684668 -0.34197012 0.10377714 -0.10848414 -0.06818253 -0.07716106 -0.18526088 -0.16527572 -0.18949108 -0.4939827 -0.3212425 0.41171655 -0.03774962 0.12676288 0.8543165 -0.116691634 -0.41025177 0.49054167 0.08818623 0.03390612 0.024274822 0.033423882 0.26792872 -0.094616726 0.65836805 -0.39574686 -0.10092654 -0.68245196 0.038522825 0.23066133 0.119676344 0.31687072 0.2190909 -0.022468967 0.4035083 0.7462821 -0.21360654 0.027079333 0.64453036 -0.19066238 -0.5585067 -0.43044698 -0.32625625 0.33950582 -0.4713412 0.35621807 0.21593444 0.6196171 0.4402362 0.4014745 -0.032588374 0.33257636 -1.0140203 -0.36130622 -0.9267138
2637 -0.44797254 -0.073432334 0.16606203 -0.07639644 -0.0027952986 -0.523889 -0.13166502 -0.0301681 -0.21897206 -0.004613473 -0.1830854 -0.15818453 -0.16045965 0.020811895 -0.698385 -0.25598237 0.46345392 0.057141744 -0.054321337 0.6447736 -0.2080351 -0.05661699 0.305412 -0.2625281 -0.0577276 0.25419298 -0.20886429 0.101767436 -0.21672153 0.64476144 -0.54842055 0.06649452 -0.65599585 -0.1260104 0.33134148 0.37922066 0.23199482 0.42700312 -0.06696416 0.3171791 0.64658606 -0.18857223 0.18287899 0.48748893 -0.2266951 -0.433774 -0.3725532 -0.35804865 0.2639244 -0.31256703 0.39082602 0.15068741 0.7603629 0.45363024 0.28414118 0.13508789 0.27763543 -1.0970464 -0.4713224 -0.73652
2751 0.005515283 -0.3875582 -0.037052695 0.32922554 -0.28821233 0.10001465 0.38562825 -0.41266802 0.4575922 0.15665647 -0.38424224 -0.046020348 0.5148308 0.034108 -0.0069460575 -0.56111586 0.06343042 0.23021321 0.3109122 -0.42904502 -0.19594362 -0.31882346 0.33352166 -0.15468276 -0.4284351 0.033279635 0.021502687 0.03803566 0.13202643 0.23352979 -0.6698129 0.033906624 0.27512482 -0.28872135 -0.12277206 -0.42334223 -0.08986522 -0.32315806 0.44183496 -0.09169165 -0.046180997 0.2359167 0.18350406 -0.31467637 0.1113142 0.3774463 0.28342554 -0.21052732 -0.34602758 -0.47869396 -0.4298033 0.15976515 0.36986673 0.29300508 -0.42802116 0.0998015 -0.16100146 -0.15975174 -0.29811457 0.095767885
2759 0.06094626 -0.2362091 0.23395528 0.52920604 0.050997242 -0.015316147 0.5469498 -0.2670535 0.2636557 0.015712854 -0.09846546 0.23216507 0.18042782 -0.1993734 0.23582204 -0.7225105 0.20646602 -0.034082532 0.48463148 -0.057714596 -0.026875619 -0.5401036 0.00781269 0.016346602 -0.17382126 -0.03431779 -0.08645646 -0.11611325 0.08757101 -0.18314831 -0.7927335 0.18890493 0.07638954 -0.58644944 -0.15101703 -0.317526 -0.16977479 -0.10315627 0.036338013 -0.29166532 0.16656472 0.086378165 0.21205866 -0.2942882 0.05713283 0.39488742 0.5399907 -0.31844705 0.15177722 -0.42857695 0.01429843 0.13398248 0.4986778 0.09264565 -0.036364052 0.012810084 -0.15127248 -0.11203868 0.15104756 0.3466114
2643 -0.31543273 -0.09596185 0.3462849 -0.041509215 -0.120367065 -0.40478218 -0.54254085 0.06492747 -0.08345319 0.24004382 -0.20633608 -0.11831289 -0.24257122 -0.40813944 -0.7094073 -0.26779988 0.28420246 -0.024031099 0.1566193 0.81965715 -0.05943505 -0.3972678 0.30137232 -0.006551339 -0.29751697 0.1630278 -0.10635421 0.19094813 0.14296608 0.8842063 -0.2899171 0.2999949 -0.6523162 -0.0037759123 0.23797207 -0.028473604 0.56779206 0.1936964 0.00715944 0.2879837 0.8516493 -0.055435378 -0.13050583 0.6285649 -0.34491006 -0.5763679 -0.38139752 -0.49566597 0.44298366 -0.32356083 0.5587361 0.15631115 0.68902415 0.4249951 0.24636431 -0.0044197203 0.26277804 -0.97517645 -0.231739 -0.787333
2644 -0.5166681 -0.13180111 0.51231164 -0.4003943 -0.24624656 -0.44177812 -0.41990238 0.13741238 -0.03673852 -0.23430261 0.089065 -0.33419138 -0.2090562 -0.26395166 -0.58497536 -0.26708406 0.11308644 -0.091047995 0.037949104 0.73555434 0.12713587 -0.24723971 0.4082655 0.1258997 0.09799166 0.12456795 -0.10756224 0.50116414 0.018281758 0.3472385 -0.577464 -0.010677249 -0.896849 0.0052335267 0.26394653 0.06331552 0.18945585 0.25388 0.22663005 0.2913874 0.41895545 -0.36969286 0.048180766 0.5800131 -0.1670947 -0.4146419 -0.045994155 -0.29775938 0.3239571 -0.4204124 0.6151018 0.5699682 0.28242213 0.44043848 0.11940504 -0.142963 0.1131684 -1.0619205 -0.426854 -0.94485646
2688 -0.3790844 -0.025997464 0.2850142 0.012278569 -0.20180438 -0.6665429 -0.357786 0.15157329 -0.109563924 0.3030796 -0.19202296 -0.095289275 -0.20923667 -0.12734763 -0.6464587 -0.47087285 0.31278038 -0.0043372675 -0.16369553 0.61144143 0.15214773 -0.2046341 0.23745607 0.17692442 -0.43041834 0.18820076 -0.28387338 0.11653763 -0.015110211 0.6722418 -0.4583245 0.32511863 -0.7923956 0.03125076 0.2484352 0.051828746 0.33172196 0.10179176 0.050244126 0.45467147 0.82806635 0.11120657 0.12866725 0.38366243 -0.056228753 -0.65768594 -0.6144061 -0.32917613 0.48364264 -0.23797081 0.4472758 0.17115161 0.59983945 0.518542 0.32349363 -0.061157193 0.31385687 -1.121958 -0.27477482 -0.7017433
2623 -0.50869435 -0.12639654 0.37471253 -0.18151227 -0.15776658 -0.39069283 -0.29778063 0.06528571 -0.30357182 -0.31833187 0.34926197 -0.32325694 -0.06425489 -0.26169202 -0.44557002 -0.16073976 0.13958797 0.14101592 0.07262058 0.8620536 -0.07698944 -0.45341766 0.3610446 0.08276264 0.17476514 -0.07394759 -0.014223706 0.74384916 -0.022375451 0.32486814 -0.5901236 -0.1562146 -1.1688519 -0.09751838 0.45613295 0.24308236 0.23783758 0.13726978 0.43475688 0.31502825 0.063875794 -0.5067092 0.30252463 0.5756507 0.1572293 -0.26390576 -0.3045037 -0.0053212545 0.49893746 -0.57591105 0.28782344 0.053206537 0.27090818 0.41561377 0.014670441 -0.16623935 -0.19182904 -0.98424715 -0.14796 -0.8575509
2642 -0.3930238 -0.21132784 0.5834891 -0.10295494 -0.31386864 -0.6477779 -0.32866925 0.0781189 -0.08659292 -0.080122486 -0.126697 -0.4363873 -0.1291935 -0.5398447 -0.50625104 -0.33551553 0.057004243 -0.082487 0.20152245 0.9263504 -0.0595287 -0.3097848 0.25836837 0.13064763 -0.15178587 -0.13199864 -0.12742287 0.34681076 -0.0032768766 0.70405203 -0.25568816 -0.06936603 -0.771255 -0.13027772 0.19113606 0.037679166 0.25781405 0.34345287 0.1714479 0.14894648 0.5714606 -0.10067875 0.09934383 0.6949406 -0.17742741 -0.44590974 -0.13964921 -0.12228638 0.36175206 -0.36194593 0.6441038 0.24912226 0.31996843 0.34591234 0.16116115 0.11721804 0.055995286 -1.0580842 -0.31443736 -0.91951376
2754 -0.0015025416 -0.24116941 -0.060377922 0.3309762 0.20732369 -0.1026718 0.39821327 -0.08306061 0.45185485 -0.10081405 -0.17751089 0.02414425 0.10878895 -0.21659186 0.31466532 -0.6067925 -0.06393607 0.027076889 0.43587443 0.017448554 0.3144487 -0.45387986 0.16606449 0.09613694 -0.14719513 0.14480631 0.09895342 -0.06206152 0.06874665 -0.13915946 -0.94819635 0.33015537 0.20401253 -0.6707068 -0.24675506 -0.11523616 -0.20993076 -0.14702855 -0.019093964 -0.26259354 0.09305416 0.14433789 0.2774282 -0.38120577 -0.1214049 0.34058636 0.5209901 -0.32184628 0.4217215 -0.33885428 0.055235714 -0.013876968 0.6395084 0.0934058 -0.16399671 0.21292685 -0.038376153 -0.018953279 0.19661576 0.21933113
2752 -0.04715772 -0.4395118 0.1124115 0.15897809 -0.18256573 -0.1027433 0.50319254 -0.30901715 0.36465794 0.3402288 -0.48446342 0.14419863 0.708107 -0.2019557 0.13977604 -0.5613765 -0.010198217 0.05933934 0.21422003 -0.27637362 0.008614206 -0.3630484 0.29251 0.13897254 -0.20552947 0.038076654 0.17090899 0.008137517 -0.034800995 0.1385954 -0.54172474 0.25522202 0.2269479 -0.3321416 -0.13897505 -0.4521223 0.2606225 -0.21421556 0.12837707 -0.3711318 -0.25860092 0.16662467 0.29687822 -0.5124394 0.1184251 0.4539834 0.13707936 -0.2352904 0.093069084 -0.44358823 0.059917983 0.14137024 0.6058123 0.0006958763 -0.36947998 0.1297725 -0.3457742 -0.19157754 -0.28029397 0.2625833
2686 -0.33736303 0.033835582 0.15063943 -0.027062109 -0.23391967 -0.29088625 -0.5214968 -0.1770883 -0.23904774 -0.14435491 0.33235434 0.029699398 0.061047938 -0.26910362 -0.4500998 0.019295206 0.15021737 0.692696 -0.19519429 0.75873303 0.02349169 -0.41864166 0.29625708 0.024572149 0.28768396 0.15499167 -0.029646391 0.48585042 -0.31046084 0.32148913 -0.7735974 -0.0025521778 -1.0545632 0.09352553 0.54958946 0.35587433 0.15243006 0.25884926 0.22093773 0.3848917 0.21850067 -0.49723974 0.32861894 0.7608889 0.1396466 0.08134134 -0.33191112 -0.3399019 0.54395807 -0.7971708 0.37104103 0.23120923 0.1417798 0.39594314 0.04192668 -0.07839196 0.012384476 -0.9713808 -0.27765444 -0.6702576
2684 -0.2752166 -0.10878 0.075114615 0.086022586 -0.14155094 -0.016642718 -0.15570015 -0.16749267 -0.14782804 -0.2012566 0.26268637 0.015768824 -0.12773511 -0.22289741 -0.4711981 0.1742626 0.26014063 0.39438972 -0.27488485 0.9212332 -0.07893693 -0.4895412 0.4772392 -0.11506113 0.4996563 0.21513048 -0.07022121 0.39227894 -0.14874405 0.3416365 -0.8120539 -0.028247861 -1.0468788 0.18561494 0.6467227 0.11044917 0.11312741 0.04191501 0.3382676 0.17818043 0.07424783 -0.24491303 0.39291492 0.6215832 0.2571316 0.04967864 -0.3443155 -0.29394537 0.51635647 -0.63170546 0.31868196 0.07306948 0.036669455 0.44135326 -0.13262412 -0.19013512 0.16324693 -0.9398856 -0.33846965 -0.8824562
2755 -0.11623467 -0.30305934 -0.06975542 0.4758227 -0.074021816 -0.1365233 0.30155596 0.002456612 0.403025 -0.039805513 -0.15594417 0.19572617 0.25543654 -0.20608178 0.316865 -0.5952808 0.18233725 -0.090467714 0.4202671 -0.13674586 -0.08293809 -0.46905363 0.10582768 0.12213466 -0.091314435 0.0068572653 0.16627696 -0.06715108 0.04305587 -0.37424746 -0.82505745 0.19427912 0.24324255 -0.52021366 -0.30958733 -0.12325489 -0.17676914 -0.32217488 0.02602498 -0.21035385 0.08907876 0.19157861 0.23544632 -0.24303177 -0.111245714 0.27821025 0.49829823 -0.2349255 0.31077152 -0.43170562 -0.06747915 0.042570017 0.58006716 0.18387316 -0.20473184 0.25289467 -0.05563817 0.030099431 0.056519054 0.14101444
2733 -0.239128 0.0066693015 0.17203784 0.3090345 -0.15496968 0.043860614 0.07862658 -0.13865344 0.44205403 0.08168465 -0.19715369 0.19755492 0.3339502 -0.4874706 0.5258364 -0.5627039 0.28606737 -0.0075291563 0.024130147 -0.36283138 -0.1546394 -0.2030203 0.30423188 -0.37335515 -0.18656768 -0.10088893 -0.02048068 0.01651898 0.17451864 -0.40066832 -0.70985585 0.08737022 0.2102933 0.08680176 0.087706216 -0.30935603 -0.25845867 -0.03763554 0.4756504 -0.06781574 0.08417684 -0.04221291 0.2587874 -0.10484117 -0.108008064 0.16012764 0.17673409 -0.12585816 -0.09405791 -0.299777 -0.26276875 -0.249293 0.24438187 0.27817768 -0.5405814 0.51535994 -0.28445032 -0.09773286 -0.25992557 -0.2652684
2629 -0.5798261 -0.16115479 0.46715 -0.33449006 -0.17977114 -0.4732661 -0.4913326 0.1683264 -0.06693612 -0.08142961 -0.1063579 -0.40181422 -0.1391397 -0.59908104 -0.5058261 -0.15553397 -0.1355628 -0.11029191 0.20735751 0.8774539 0.0654311 -0.19637613 0.28740692 0.23461618 -0.17642015 0.123230346 0.04568684 0.5705739 0.17597526 0.40316424 -0.5458749 -0.2784801 -1.0624632 0.017349137 0.37268403 -0.08042908 0.24290141 0.56280106 0.3491649 -0.041689686 0.26868352 -0.37504378 0.014164365 0.51088923 0.17449737 -0.30077538 -0.08427157 0.007679601 0.38779232 -0.51724 0.5825662 0.31315115 0.36105266 0.2561771 0.11141317 -0.047737643 0.2517493 -0.89080554 -0.43750995 -0.99481565
2753 -0.11523008 -0.19996801 0.09495271 0.33573735 -0.10271244 -0.025245884 0.12932973 -0.14787978 0.4399577 0.2102736 -0.33292845 0.16194555 0.56461567 -0.14231066 0.2253462 -0.5663186 0.13647352 0.18616489 0.14000338 -0.38940942 0.03281142 -0.115556255 0.51983315 -0.016402429 -0.2777807 -0.0565448 0.03705101 0.03236446 0.16543071 -0.0071463906 -0.70953965 0.101487 0.34123713 -0.36796477 -0.25046608 -0.4968321 -0.353714 -0.26129425 0.29119074 -0.08919632 -0.087130316 0.22502957 0.35413834 -0.2708198 0.10918998 0.35348076 0.29024875 -0.15115291 -0.1158243 -0.22216752 -0.36607265 0.0469408 0.35890272 0.30854025 -0.36669165 0.1926352 -0.047095913 -0.1346612 -0.33351457 0.050846796
2744 0.19861597 -0.5139948 0.034916975 0.20579685 -0.10669454 -0.05695212 0.4842609 -0.4835883 0.21337406 0.3301223 -0.48423392 0.01340369 0.5477694 -0.31965914 -0.1294049 -0.45932236 0.14208882 0.21407168 0.14046462 -0.32496348 0.06404868 -0.2805824 0.3716762 -0.048188433 -0.24244843 -0.027238887 0.23095135 -0.00070720515 0.05358468 0.18814303 -0.6714534 0.22799046 0.18266772 -0.39622438 -0.12077221 -0.4934501 -0.15759178 -0.1609469 0.22489381 -0.36233133 -0.2831631 -0.06044901 0.112779774 -0.5323294 -0.05965337 0.22717766 0.18143816 -0.09540643 -0.032814268 -0.43050882 -0.040647943 0.33466616 0.64663756 0.10189128 -0.5170502 0.0018827525 -0.46833465 -0.18146628 -0.34595668 0.2541995
2770 -0.011983998 -0.23637478 0.18909939 0.4847549 -0.23927014 -0.114748694 0.39917514 -0.2221527 0.47061855 0.19996288 -0.24424428 0.18369861 0.17785482 -0.26384223 0.30191574 -0.59710217 0.2119937 0.004780768 0.46868613 -0.07825246 -0.078605905 -0.50819296 0.033663254 -0.09258593 -0.048183225 0.019954875 0.047407933 -0.018214745 0.080532245 -0.31226268 -0.81993127 0.25865847 0.18840533 -0.41170564 -0.2845457 -0.26636872 -0.31495216 -0.14764066 0.14568132 -0.24785732 0.06533555 0.040279273 0.19465049 -0.26676598 -0.16806002 0.24229786 0.4871803 -0.35574988 0.13022675 -0.4047943 -0.09267034 0.09076578 0.47139362 0.029331926 -0.11287313 0.12775284 -0.048848435 0.021927683 0.16252919 0.25515422
2761 -0.124270216 -0.3121226 -0.06814967 0.5475337 -0.23824987 -0.13193262 0.5537983 -0.26874465 0.17829311 0.1389513 -0.2555623 0.21192674 0.44776782 -0.2978704 0.18710707 -0.39659423 0.00066163344 -0.1278574 0.34127262 -0.20772478 -0.10436307 -0.40983495 0.21708062 -0.018578961 0.0065727434 -0.09310166 0.18997839 -0.14380613 0.26969233 0.09095179 -0.6937071 0.17242773 0.20303603 -0.47273543 -0.17709279 -0.49989155 -0.29525602 -0.07132728 -0.017830733 -0.17994586 0.0875402 0.15124491 0.34799498 -0.45251808 0.23056118 0.41656104 0.21102424 -0.3008944 0.1309468 -0.34019664 0.16683486 0.014314816 0.59638673 0.16740306 -0.30649883 -0.012866416 -0.21498343 0.0823852 -0.14782605 0.26012388
2762 -0.026588658 -0.42098895 0.16837953 0.29319024 -0.044078216 -0.12610143 0.45674062 -0.46933353 0.35208842 0.26997122 -0.3895488 0.013430503 0.60553056 -0.29909697 0.045702755 -0.5363914 0.05072375 -0.24378802 0.17856836 -0.2933422 -0.022532593 -0.41166478 0.3193523 0.187107 -0.16431846 0.024951162 0.11594149 0.19809835 0.07095449 0.050299153 -0.5233854 0.23687236 0.25929046 -0.34856313 -0.19912523 -0.45781955 0.10044645 -0.19337139 0.02290119 -0.3339266 -0.1309988 0.16939759 0.32135227 -0.58094925 0.14516221 0.4863763 0.14639904 -0.23707753 0.16052282 -0.3259602 0.006372907 0.31168503 0.58364004 0.08039907 -0.44440764 0.15042932 -0.24990256 0.0050601647 -0.2666353 0.17082892
2763 -0.42789975 -0.10769636 0.033929303 0.3293056 -0.10566985 -0.15243669 0.2649901 0.042430516 0.41283697 -0.039326847 -0.25388727 0.06467023 0.45965675 -0.40376082 0.4961067 -0.39345306 0.08818176 -0.020068381 0.45578337 -0.28656232 -0.26737356 -0.074424714 0.0683322 -0.057887826 -0.16902481 0.10388359 -0.2549084 0.13208924 0.2859022 -0.42007682 -0.9003018 0.07396567 0.087299906 -0.33673885 -0.08580585 -0.22898339 -0.31465983 0.05856002 0.07936032 -0.2727893 0.121148795 0.050000537 0.40126362 -0.34715173 -0.19052345 0.25885752 0.46573675 -0.25202924 0.07035577 -0.3130827 -0.4157642 -0.23860879 0.22187904 0.41945645 -0.40503076 0.5825617 0.16888256 -0.021481799 -0.08978528 0.09070875
2610 -0.40101323 -0.13907564 0.24547206 -0.29440805 -0.1715521 -0.3525094 -0.12613356 0.0052511357 -0.29464746 -0.31859598 0.47807732 -0.06317595 0.026796957 -0.4471928 -0.4084381 -0.021505665 -0.03203678 0.36138192 0.14565548 0.8058377 -0.16676894 -0.63964844 0.2841738 0.1064429 0.12527685 0.20682153 0.15534136 0.6329282 -0.14326723 0.2676932 -0.56509244 -0.16196592 -0.95557505 0.047147907 0.410163 0.433505 0.12913744 0.048345976 0.2579091 0.4472002 0.19596428 -0.54028416 0.18238178 0.7937559 0.19211127 -0.068967044 -0.40721866 -0.14807056 0.629551 -0.7434583 0.26769444 0.4735525 0.100050926 0.38935608 -0.18499455 0.09119951 -0.03008273 -0.998813 -0.44332132 -0.804344
2750 -0.2923995 -0.21824162 0.20441833 0.6844239 0.25952703 -0.045063622 0.50319827 -0.06746376 0.2548472 -0.084776945 -0.16393419 0.012343136 0.25841767 -0.23102397 0.2763418 -0.48651057 0.18034948 -0.062312126 0.53285193 0.14114894 0.24281804 -0.3077265 0.05217465 0.15122104 0.017646953 0.09128996 -0.11400036 0.018141218 -0.05358185 0.09553343 -0.86027175 0.15615945 0.010222203 -0.65726054 -0.43556628 -0.10016839 -0.32009622 0.08771614 -0.0200809 -0.20007145 0.09288708 0.26851588 0.3949136 -0.27490324 -0.22411148 0.42418957 0.4911174 -0.547649 0.05928601 -0.24492326 0.067545235 -0.12638171 0.6134353 0.19443342 -0.15683673 0.4671937 0.15908869 0.24781702 0.18128365 0.27131718
2721 -0.24951586 0.037955586 0.09149385 0.5913554 0.13262035 -0.12330009 0.16373453 0.1476038 0.24210896 -0.010243854 -0.014705535 -0.09165196 0.22153912 -0.34846383 0.54252845 -0.43095323 0.06984017 -0.20981272 0.30406958 -0.18762071 -0.12835483 -0.27936724 0.10404793 -0.11103263 -0.10327828 0.2875716 -0.028716862 0.098078854 0.2576044 -0.5338768 -0.73368144 0.3599357 -0.19890763 -0.26282275 -0.1566576 -0.18987764 -0.11107542 0.13210353 0.18122967 -0.2375371 -0.21435142 0.060276236 0.2837061 -0.19308183 -0.30484352 0.32496238 0.4848846 -0.28878722 0.15978251 -0.27655816 -0.2454084 -0.23995018 0.4279763 0.30277926 0.10944648 0.28499216 0.1403633 0.09235751 0.012954426 0.027561177
2743 -0.20315455 -0.12085109 0.24076927 0.63412374 0.16854294 -0.08246596 0.6012266 0.0730312 0.30289868 -0.13930582 0.0073572886 0.21020721 0.06937198 -0.0527344 0.42171475 -0.6604988 -0.091933906 0.08636691 0.549759 0.15549715 -0.08696381 -0.47777706 0.13686672 0.06776233 0.07841046 -0.06976738 0.053417027 0.079623275 -0.14147505 -0.18903956 -0.867697 0.092024714 0.018083017 -0.6215773 -0.19927962 -0.16063648 -0.33935067 -0.057429846 0.039657928 -0.36431494 -0.117453635 0.0046262615 0.3061191 -0.49571574 -0.28317827 0.13846137 0.4670011 -0.49839625 0.010816605 -0.17750078 -0.09967256 -0.30354235 0.6983263 0.04891601 -0.047867827 0.56729054 0.06138053 0.09814084 0.20385282 -0.116087735
2701 -0.5488126 -0.21874854 0.5682909 -0.13572165 -0.35066706 -0.30229443 -0.33944312 0.17398348 -0.1976546 -0.020483015 -0.055038437 -0.21963091 -0.2635276 -0.46805283 -0.48638868 -0.25982618 0.43774524 -0.107914 0.026348663 1.0029548 -0.20685838 -0.3680914 0.39454937 0.12202707 -0.22026911 -0.010158261 -0.13540289 0.3877265 -0.024732117 0.7631151 -0.29059055 0.22736928 -0.68930286 -0.029061938 0.102260455 0.031174693 0.37943783 0.36520052 0.23029119 0.18132028 0.6811749 0.14481239 -0.040070377 0.6078847 -0.045034785 -0.48205388 -0.4119043 -0.3620127 0.4181576 -0.3951452 0.53487 0.20413722 0.42048898 0.53836596 0.13985676 -0.18157744 0.31430814 -1.0211383 -0.3300154 -0.7521507
2764 -0.49871606 -0.16050774 0.10010208 0.38982698 0.03937599 -0.27041832 0.1853888 0.049923927 0.47060364 0.025886208 -0.16060369 0.08822641 0.46812114 -0.35154578 0.5701594 -0.3591678 0.103873506 -0.042113394 0.40509096 -0.23082818 -0.079798855 -0.15687986 0.043473992 -0.18637301 -0.11675483 -0.016834948 -0.22534952 0.11684508 0.27251458 -0.48704165 -0.85670936 0.17346807 0.16351308 -0.19645795 -0.1409899 -0.23909122 -0.34152925 -0.08861997 0.16975468 -0.24488541 0.07278432 0.05326158 0.4362121 -0.35855082 -0.27850097 0.32148197 0.46369725 -0.33625484 -0.07274302 -0.3710492 -0.28715783 -0.25183037 0.19765581 0.36509892 -0.35940513 0.48779005 0.039163888 -0.107759155 -0.0743717 -0.053545885
2765 -0.031913605 -0.08598625 0.1497386 0.26530635 -0.24948101 -0.036404785 -0.005656991 -0.029754294 0.3393904 0.425796 -0.30298653 0.071241684 0.644214 -0.23699613 0.29598618 -0.4473364 0.102899924 0.028901992 0.09557908 -0.34160677 -0.060248416 -0.1884952 0.3425134 -0.11644738 -0.07295168 -0.1481657 -0.09699407 -0.101874694 0.21990788 -0.02673085 -0.58516943 0.094676964 0.14770089 -0.3816305 0.062047914 -0.37554932 -0.40109092 -0.23727591 0.42857617 -0.37352356 -0.02998015 0.12841669 0.33644232 -0.31392312 -0.057213668 0.2849816 0.457249 -0.132258 -0.15047716 -0.45575288 -0.4414582 0.12549308 0.5097344 0.43305027 -0.40906262 0.19221665 -0.25304446 0.021175047 -0.5732805 0.161134
2778 -0.29986435 -0.1654585 0.059769403 0.26068953 -0.14768666 -0.0905144 0.30144572 -0.063721016 0.42067906 0.07240529 -0.3142921 0.1847762 0.40272036 -0.4603788 0.3185511 -0.6092263 0.16255489 0.19479965 0.33177546 -0.10709654 0.11611203 -0.10137239 0.15266667 -0.18319142 -0.12691094 0.099017166 0.096018285 0.0833421 0.18045838 -0.29747918 -0.74042386 0.15484682 0.2672334 -0.12987608 0.12330998 -0.48981342 -0.28930742 -0.17511542 0.030504098 -0.16900429 -0.0112891095 -0.054491445 0.3032017 -0.23331921 -0.025216512 0.17334001 0.445774 -0.22459888 -0.14507952 -0.2104359 -0.30399916 -0.087560676 0.4869294 0.35249677 -0.6382001 0.37392473 -0.061321832 0.09744182 -0.17233433 0.13839127
2734 0.07967839 -0.22675605 0.13723418 0.38897997 -0.34990966 0.016640846 0.40172386 -0.3593705 -0.05690585 0.43503717 -0.23661123 -0.278015 0.44297686 -0.2256071 -0.2297421 -0.3954326 0.20419031 -0.13760243 0.07364095 -0.39270243 -0.035544764 -0.27450058 0.22649528 -0.17191677 -0.19373183 -0.0011683136 0.07035517 -0.030638343 -0.09244633 0.20862813 -0.6386605 0.049959227 0.08660928 -0.18455802 0.067195475 -0.7075135 -0.039595354 -0.20184481 0.17683394 -0.22747454 -0.6068957 0.07662942 0.2402872 -0.20571536 0.5089728 0.6148448 0.090703756 -0.011183566 -0.35969272 -0.4206973 -0.13350618 -0.009438356 0.3509723 -0.0017792434 -0.34818727 0.04849909 -0.25022554 -0.15247273 -0.5843698 0.07250117
2756 -0.2735077 0.053782772 -0.07176272 0.45246154 -0.1349339 -0.0881397 0.12183233 -0.135971 0.45316762 0.31834635 -0.36787692 0.044894643 0.3395764 -0.4916896 0.40532532 -0.61154044 0.04233358 0.17368326 0.29079783 -0.28540677 -0.07431364 -0.26510713 0.10396431 -0.21825574 -0.07014749 0.108358644 0.12485823 0.14686768 0.41005895 -0.31475943 -0.7688389 -0.03842927 0.26248753 -0.14702812 -0.09309135 -0.40074903 -0.27964646 -0.27927458 0.26728803 0.0032089348 0.15011317 -0.055402234 0.41185635 -0.36108664 -0.1203229 0.004343941 0.49717176 -0.24693707 -0.015739597 -0.36512846 -0.34084558 -0.19937748 0.08771478 0.32337853 -0.5162656 0.61448026 -0.24091296 -0.023890806 -0.26293978 -0.14906783
2766 -0.008040291 -0.40720826 0.10328462 0.4796017 -0.08767314 -0.029312184 0.40551585 -0.22946152 0.17344692 0.15845652 -0.29822123 0.025468342 0.54319024 -0.14118913 0.02541422 -0.47098175 0.11042214 0.07431249 0.18617864 -0.40708694 0.0089722155 -0.3902678 0.16453439 0.13297158 -0.0016746074 -0.015011368 0.11260931 0.14313857 0.21297042 0.119195625 -0.6731261 0.31917736 0.3481119 -0.48689282 -0.25884706 -0.5180578 -0.045702044 -0.22986878 -0.02501962 -0.32321078 0.04413352 0.102164686 0.41955823 -0.48049283 0.021598982 0.48211688 0.40243322 -0.28176367 0.03740667 -0.23776303 0.15499888 -0.05209945 0.529696 0.060733516 -0.4055396 0.0778466 -0.27298498 -0.14865002 -0.3002083 0.06197396
2700 -0.49047983 -0.22292 0.42499483 -0.32995495 -0.39293104 -0.45442155 -0.35191223 0.02220463 0.061362863 -0.29150897 0.0042619207 -0.46862546 -0.16987957 -0.5690208 -0.40994075 -0.056593757 -0.15619065 0.15278196 0.1696686 0.7190946 0.11996971 -0.3849726 0.30870366 0.24457948 -0.09739135 0.14741078 0.23570332 0.6077173 -0.00035646232 0.19584174 -0.27682814 -0.35631368 -1.1102272 0.009109368 0.26181433 0.004112425 0.1422741 0.4255803 0.25613636 0.08491579 0.17832187 -0.29857373 0.17896335 0.6715456 0.14983179 -0.3353008 0.13892716 -0.18028533 0.4649302 -0.6100256 0.48771748 0.22593594 0.46670732 0.20394883 0.25188705 -0.18612987 0.20144115 -1.0115342 -0.61938226 -0.9687648
2742 -0.010018286 -0.48333257 -0.022669833 0.166215 -0.21981241 -0.091737464 0.35190743 -0.347759 0.3902559 0.30407146 -0.24555854 0.19113146 0.3443116 -0.22018468 0.08592385 -0.67970467 0.06317046 -0.27164593 0.32887447 -0.47923964 0.13362813 -0.24369751 0.32203853 0.15476057 -0.19448143 -0.08129742 0.22828075 0.111220255 0.036882985 0.25643504 -0.8012418 0.02561434 0.20040074 -0.47599867 -0.2260767 -0.19411144 -0.3218172 -0.4408444 -0.056544267 -0.20624617 -0.07358814 0.09597981 0.28508413 -0.39513716 0.28211722 0.41964862 0.23532541 -0.271841 0.1167903 -0.4693668 0.3213444 0.22484764 0.8855699 0.11490601 -0.22687772 0.018119637 -0.16241537 -0.037032858 -0.019538298 0.35080537
2779 -0.088489056 -0.48838603 0.019710999 0.40659323 -0.13527164 -0.14764103 0.47216806 -0.17629774 0.2126336 0.34562996 -0.2631905 0.1224334 0.30007488 -0.2264681 0.1423867 -0.48302826 -0.12584 -0.06395678 0.42915502 -0.2634547 -0.26170033 -0.42371565 0.16738135 -0.05252188 -0.073463656 -0.010128865 0.06916238 0.044259813 0.28859174 0.06394536 -0.757589 0.16680825 0.3540581 -0.39895716 -0.10696126 -0.4720647 -0.310792 -0.16801861 0.030039549 -0.2974493 -0.12681408 0.1785058 0.439453 -0.42371604 0.0167415 0.3939868 0.2905085 -0.14482732 0.15927924 -0.50142 0.13472879 0.009459912 0.60028523 0.11533803 -0.032840278 0.0069038137 -0.25799322 0.09754068 -0.121845044 0.20013162
2706 -0.39937332 -0.25233296 0.33054838 -0.3143454 -0.26066464 -0.37921685 -0.553553 0.006873683 -0.07523786 -0.37789673 0.10176289 -0.25291082 -0.0889475 -0.31371185 -0.58356845 -0.18489553 -0.1026564 -0.0008914578 0.1588409 0.8482967 0.17718303 -0.44415227 0.25542235 -0.0352735 0.17592412 0.03050676 0.012782329 0.61825705 0.19467616 0.36659718 -0.76909155 -0.18514086 -0.9176255 0.04208357 0.3011005 -0.0018487563 0.17972861 0.36569855 0.2768179 0.22018561 0.3483185 -0.3151868 0.12406752 0.5550436 0.102306366 -0.24830297 -0.25150856 -0.2260379 0.36430258 -0.54074 0.61613923 0.30530325 0.12917946 0.3263053 0.12417819 -0.112640664 0.12140819 -0.93916756 -0.4523981 -0.99885803
2649 -0.2975413 -0.26194927 0.2615962 -0.12745482 -0.08232133 -0.5943646 -0.50760925 0.16455436 -0.24820648 -0.08096146 -0.20030828 -0.12190293 -0.2254682 -0.2415333 -0.5909164 -0.15690452 0.2810079 -0.040682465 0.16087885 0.959409 -0.08586137 -0.3547457 0.17739412 0.012507108 -0.2456067 0.15961778 -0.17876312 0.42954126 0.16165105 0.9047509 -0.3716575 0.2540166 -0.6635774 -0.047687374 0.3052191 -0.099114455 0.3189356 0.25296926 -0.21278419 0.29560485 0.8024533 0.040245797 0.02914086 0.5899541 -0.20710608 -0.6005181 -0.54696053 -0.31955484 0.5665637 -0.43714944 0.44755107 0.2888195 0.6668202 0.56706905 0.26968053 0.14589792 0.44608667 -0.96747774 -0.5074465 -0.54094225
2769 -0.03495623 -0.17457828 0.04646743 0.32729563 0.16798401 -0.10213172 0.39499107 -0.007980389 0.45538807 -0.016114056 -0.26379555 0.22127768 0.11197765 -0.23369993 0.36648118 -0.6053671 0.077800214 -0.053350702 0.45342892 -0.14388949 -0.002342434 -0.5004383 0.08584209 0.07354194 0.08671399 0.1768195 0.13008468 -0.023371391 0.07175362 -0.30494294 -0.93401384 0.19812728 0.08851151 -0.6737054 -0.38461745 -0.31479082 -0.25142887 -0.06984927 -0.0549775 -0.07526263 0.07636838 0.2600717 0.21841034 -0.49240133 0.012702282 0.24863115 0.40877625 -0.30729228 0.2919591 -0.32309398 -0.107286766 0.17722656 0.6123843 0.060209334 -0.017094092 0.28603998 -0.00022595278 0.019668037 0.12598948 0.052252658
2651 -0.31134155 -0.23716004 0.16790107 0.049404696 -0.29000106 -0.3763215 -0.4555516 0.12652652 -0.20427701 -0.14860734 -0.039472416 -0.063831404 -0.26193967 -0.15023108 -0.5578361 -0.32372352 0.33372244 0.06629185 0.124904364 0.9346454 -0.02987635 -0.29085752 0.39250985 0.09184955 -0.058261253 -0.00094634946 -0.010596274 0.406902 0.05498573 0.6446715 -0.4882399 0.07093602 -0.7329278 -0.039654955 0.008124876 0.03427454 0.32190046 0.3702794 0.037806515 0.5325441 0.7498678 -0.12647113 0.030940548 0.664266 -0.1308135 -0.6184903 -0.44837886 -0.29848307 0.34436244 -0.4514054 0.496583 0.2922145 0.56864065 0.5110818 0.3103232 0.102864556 0.4224577 -0.9505474 -0.4590628 -0.78360474
2767 0.00478126 -0.50993824 0.18234693 0.26834503 -0.007822545 -0.026309969 0.26099452 -0.14457071 0.10051616 0.20006172 -0.61452585 0.12181183 0.43468222 -0.17389797 0.06064522 -0.415109 0.087531835 -0.18694752 0.28960708 -0.38921732 0.12166711 -0.35593295 0.2964971 0.12516262 -0.101821065 -0.05119559 0.22070459 0.20993942 0.024697576 0.1643562 -0.6680193 0.058679823 0.054819837 -0.559115 -0.2546828 -0.48087132 0.030811638 -0.3337149 -0.05398277 -0.47289088 -0.24838918 0.24945863 0.19144382 -0.41135564 0.03541595 0.43083012 0.2006949 -0.14567521 0.057016175 -0.4001932 0.10674042 0.088704124 0.79370093 0.16425365 -0.52059245 0.07894837 -0.3531526 -0.034432966 -0.25929552 0.305488
2659 -0.5374119 -0.024402002 0.3990299 -0.3485385 -0.22363053 -0.23748942 -0.5641667 -0.022592548 -0.054313734 -0.41162503 0.054542303 -0.1365696 -0.17700423 -0.41628915 -0.51594585 -0.10861703 -0.10401634 -0.027576283 0.20191263 0.7903327 0.035550453 -0.2306564 0.24194014 0.2056522 0.05716162 -0.0115400255 0.046213225 0.6149891 0.08154739 0.39700186 -0.61164665 -0.09286911 -1.1003321 -0.034643564 0.19086815 0.006058507 0.24665043 0.4053721 0.3907314 0.23198712 0.43627772 -0.23099442 0.124075666 0.5774798 0.13953024 -0.32686394 -0.071481355 -0.20078844 0.16694209 -0.50681865 0.6547108 0.33997202 0.38682002 0.38932288 0.03976032 -0.096244946 0.01247374 -1.0580012 -0.4316541 -0.9419153
2783 -0.2711352 -0.18307574 -0.107625976 0.22444923 -0.15020563 0.030703504 0.21239863 -0.04463585 0.46994808 0.16113196 -0.3748267 0.006815197 0.44869387 -0.2903512 0.45289978 -0.592974 0.06506866 0.20281808 0.3008253 -0.1119559 0.06174087 -0.13278091 0.21441466 -0.21291444 -0.11773655 0.036451448 0.0832314 0.19195713 0.12053883 -0.27297387 -0.836189 0.105233945 0.3437852 -0.2880622 0.037893783 -0.38761628 -0.37245452 -0.09194052 0.15428098 -0.099665895 -0.09055799 -0.071697935 0.2764311 -0.33504462 0.05146484 0.093497045 0.28903437 -0.4184624 -0.04811344 -0.16107647 -0.22319546 -0.021784794 0.48133132 0.3689473 -0.4206273 0.3358206 0.0040482716 0.14396955 -0.2678129 0.21372646
2771 -0.26541835 -0.18298467 -0.050307807 0.5095745 -0.19713806 -0.058098156 0.10548493 -0.091162845 0.478643 0.28431687 -0.4019249 0.07580858 0.35564214 -0.5916077 0.4141832 -0.38429415 0.029185008 0.11202591 0.26945367 -0.2965582 -0.14077547 -0.33293515 0.09959702 -0.3347926 -0.122318536 0.10302247 0.10586491 0.13158923 0.27336296 -0.35221484 -0.6627474 -0.040071752 0.2846721 -0.10110294 0.06628245 -0.30021858 -0.2235149 -0.24013183 0.3612329 0.12862214 0.09290353 0.1286662 0.29444367 -0.38025993 -0.14814165 0.14468268 0.40723392 -0.2810009 -0.10766726 -0.3937649 -0.33743787 -0.21648812 0.2728891 0.36538368 -0.45569736 0.62950253 -0.31964284 -0.0225002 -0.32643205 -0.06598869
2772 -0.41283232 -0.084386125 0.09828471 0.45192963 -0.063495144 -0.2603681 0.33879772 0.034769285 0.6285628 -0.06616705 -0.24246182 0.12637419 0.4534379 -0.3962676 0.62460345 -0.413837 0.14312708 0.104204886 0.21639614 -0.11108866 -0.07779204 -0.22732016 0.076414555 -0.22899905 0.0011767411 0.10404242 -0.22173044 0.10740179 0.2924009 -0.332057 -0.7541921 0.030151239 0.097409636 -0.3490925 -0.038857117 -0.25632843 -0.2852851 -0.2003323 0.38568428 -0.027549176 0.10883609 -0.020481432 0.38669974 -0.39407712 -0.13787276 0.08578465 0.6134193 -0.3609857 -0.065535165 -0.13821955 -0.3031473 -0.14157255 0.38447928 0.28191355 -0.376763 0.5244658 0.030281382 -0.028880082 -0.12081765 0.0476591
2775 -0.43663764 -0.1993537 0.1699446 0.39524412 -0.09718909 -0.11745959 0.24812044 0.14383374 0.5536779 0.00044078723 -0.229309 0.06315256 0.24423178 -0.3540238 0.5745378 -0.49022254 0.045309376 -0.009623117 0.2679855 -0.25479454 -0.06643218 -0.14798796 0.24330874 -0.45817032 -0.1020027 0.117480956 -0.019143471 0.0027102982 0.28252327 -0.37133238 -0.78339964 -0.07396632 0.123083584 -0.36947733 -0.007990583 -0.19688246 -0.21489379 -0.24165946 0.15356393 -0.1259411 0.21929863 -0.04257556 0.418341 -0.3273129 -0.035096128 0.2258359 0.5118583 -0.4446043 -0.09873339 -0.28858182 -0.42514008 -0.029684784 0.33874997 0.200082 -0.36044586 0.6051693 0.051331654 0.14456925 -0.12196811 -0.16241631
2768 -0.2644584 -0.13036934 -0.043780066 0.55609715 -0.11308305 0.020212399 0.15193944 -0.037441935 0.5207617 0.15020086 -0.27207977 0.12154265 0.3793704 -0.49124 0.37861016 -0.6059438 0.03478556 0.1122349 0.17273666 -0.37135297 -0.05395283 -0.3562552 0.16750872 -0.37692213 0.006680728 0.10684939 0.093466915 0.16704331 0.25155798 -0.32432747 -0.6917493 -0.03967668 0.24668904 -0.10426877 0.19553679 -0.4740475 -0.32786933 -0.27940813 0.21617082 -0.085662186 0.20139039 0.06321606 0.18402459 -0.41604957 -0.32519224 0.06459488 0.38934922 -0.17728035 0.17409725 -0.33668503 -0.3321592 -0.12509769 0.26802278 0.32329908 -0.5075728 0.56487226 -0.12401662 0.013787943 -0.33206403 -0.1324839
2781 -0.21394888 0.0674161 -0.020731393 0.596534 0.08974003 -0.15262201 0.29158187 0.010361062 0.3372681 -0.005522965 -0.040423702 0.1524973 0.27987197 -0.3733616 0.4037618 -0.55809796 0.25147536 -0.038637456 0.54262483 -0.15100312 -0.114339694 -0.52357274 0.26843476 0.13259703 -0.11798421 0.19467619 0.12997337 -0.040267743 0.16601656 -0.43945855 -0.5344556 0.16618595 0.0958136 -0.42393172 -0.11654643 -0.023097683 -0.4363392 0.055471156 0.047783818 -0.29955003 0.06464218 0.2258497 0.36252883 -0.4703273 -0.31425816 0.30241644 0.49789184 -0.60602176 0.19093184 -0.31805113 -0.08515954 -0.3654205 0.62134403 0.23697151 -0.1383116 0.45401946 0.0036230166 -0.0006929731 -0.003969403 0.042026673
2774 -0.4117177 -0.1028024 0.12815727 0.49285758 0.06105174 -0.12860538 0.30939358 0.16856284 0.5258914 0.1335602 -0.2923905 0.14680032 0.34948257 -0.46106502 0.5103513 -0.57850146 -0.06241062 0.21973924 0.25084752 -0.3037969 -0.07568547 -0.18146054 0.07593568 -0.32385156 -0.0895695 0.055465862 0.013863565 0.09020018 0.3395542 -0.27545887 -0.7683442 0.014810208 0.11602502 -0.3694582 0.07878484 -0.24758087 -0.16579333 -0.10810618 0.38405517 -0.11245384 0.15217222 0.020529522 0.24750988 -0.3330341 -0.11666897 0.25609037 0.5777837 -0.21882772 -0.08231994 -0.29740897 -0.19784668 -0.1083013 0.2886835 0.19585 -0.37288985 0.555643 0.0027182484 0.13376936 -0.23603697 -0.086431034
2702 -0.49621594 -0.1651837 0.4312214 -0.23289071 -0.415255 -0.16839315 -0.33821613 0.112259686 0.18904032 -0.6077103 0.19919889 -0.26482114 -0.14554869 -0.48855624 -0.60118186 -0.12559955 0.029338466 -0.02644296 0.008438226 0.6965066 0.07817608 -0.68259233 0.43206596 0.16351716 0.21793939 -0.0065258043 0.23719934 0.78738093 0.10037674 0.3357493 -0.36992562 -0.20384146 -1.0992779 -0.06755879 0.32193053 0.07466047 0.20548569 0.6416661 0.28839684 0.11177621 0.022943102 -0.5702232 0.24955063 0.8353124 0.14307761 -0.16684872 -0.04478288 -0.2526823 0.5275052 -0.6079559 0.45371476 0.2902182 0.18905133 0.3332087 -0.002322016 -0.122840025 -0.18828738 -0.98457354 -0.40719002 -0.8494303
2777 -0.047257025 -0.13484745 0.17238335 0.2585495 -0.13642932 0.035061263 0.16668533 -0.077717416 0.42991024 0.24659792 -0.27937424 0.21658082 0.45092523 -0.47647724 0.3966403 -0.6052934 0.07967018 0.082336344 0.23130232 -0.23801683 0.0767295 -0.3092919 0.18982124 -0.23810132 -0.14237694 -0.016980318 -0.012149412 0.12578174 0.19611853 -0.27631983 -0.700153 0.05281234 0.35478574 -0.24934313 0.07502995 -0.4904852 -0.24658844 -0.118266754 0.25248417 -0.092517406 0.027465465 -0.031216595 0.28960785 -0.45301372 -0.020347279 0.20732807 0.30315748 -0.20141633 -0.10091513 -0.30909064 -0.23940629 -0.19636671 0.39647934 0.31879738 -0.2783861 0.37388867 -0.0115278205 0.09193802 -0.4110823 0.069865175
2703 -0.48741275 -0.03522407 0.10126639 -0.038758676 0.12994315 -0.58888555 -0.48020986 0.16133927 -0.39466757 0.024605788 0.49059343 0.15836838 -0.22395268 0.026222661 -0.7173401 -0.0048722853 0.33073634 0.26207778 -0.0009732484 0.66552854 0.014246301 -0.5146833 0.37622824 0.060107693 0.044822086 0.41682205 -0.057453744 0.28328368 -0.10668466 0.43921396 -0.6394521 0.264303 -0.7940164 -0.11253111 0.33445463 0.15901767 0.3359679 0.22967015 0.07571389 0.80183405 0.6386191 -0.2734192 0.27314323 0.6746625 -0.041553203 -0.29139933 -0.6058193 -0.4122008 0.39628634 -0.6720089 0.40501967 0.22242598 0.38248536 0.5368956 -0.18794194 0.28714508 -0.04842755 -0.9469194 -0.26095128 -0.8542088
2780 0.17149828 -0.43531132 -0.005669478 0.33687964 -0.1498621 -0.1260475 0.32005045 -0.21737158 0.012411718 0.30617782 -0.33976486 0.13744624 0.4912784 -0.18445775 0.009709774 -0.5708098 0.05909627 -0.019906064 0.467625 -0.19007625 0.02894725 -0.3804103 0.06303413 0.060051434 -0.082084894 -0.05083574 0.23208208 0.11269681 0.29119673 0.063534774 -0.69030404 0.050012823 0.19906786 -0.47277617 -0.10034518 -0.49113524 -0.19300951 -0.19124095 0.10158335 -0.37593132 -0.00025053322 0.0974401 0.33183146 -0.545608 0.22114801 0.5870044 0.27592465 -0.47511938 -0.058227222 -0.22505999 0.3767236 0.061017245 0.7854217 0.19695142 -0.24627054 0.13188002 -0.13901296 0.027639328 -0.042598084 0.25321046
2638 -0.51654875 -0.028941337 0.52581847 -0.45553443 -0.43264666 -0.29534048 -0.3714717 0.34807676 0.1440451 -0.4024508 0.12507287 -0.49714765 -0.17039043 -0.64686614 -0.41384053 -0.124339454 -0.23286815 -0.014159234 0.089659706 0.86069757 0.04998054 -0.24459943 0.36561975 0.31947738 0.14465864 -0.08945905 0.16931073 0.7888429 0.111613974 0.23074529 -0.43562585 -0.22861062 -0.97468495 -0.08589452 0.16588408 -0.036093824 0.01925463 0.51872903 0.43015683 -0.052986935 0.06669032 -0.3892947 0.13302681 0.83907664 0.16535644 -0.103225484 -0.1040605 -0.12015539 0.433194 -0.6830448 0.2819367 0.30152255 0.5292763 0.1696137 0.23009342 -0.100232884 0.19299254 -0.9622578 -0.39604822 -0.90500826
2690 -0.43865305 -0.13461861 0.33023402 -0.1308829 -0.22626573 -0.3152316 -0.23370665 -0.072703324 -0.20989944 -0.24821353 0.48907226 0.033255458 0.18770179 -0.31502813 -0.35333812 0.033588044 -0.2248678 0.24595256 0.08774473 0.85822916 0.017421301 -0.5237383 0.28183606 -0.015632113 0.03826974 0.19067465 0.14038755 0.41834155 0.00021946787 0.36819002 -0.59839433 -0.19929256 -1.171467 -0.07730194 0.44638342 0.37567183 0.10418902 0.18606564 0.30940595 0.4148025 0.3800556 -0.5091372 0.16278785 0.80496466 0.16342847 -0.018978195 -0.5133799 -0.10091085 0.43948206 -0.56938064 0.3789648 0.29946053 0.22986253 0.451681 -0.047423657 0.09379936 0.012553963 -0.99380106 -0.5412522 -0.71811527
2785 -0.36692828 -0.15305522 -0.051540982 0.29916713 -0.113125004 -0.17705859 0.3824667 0.0009360795 0.4695974 0.005403462 -0.12959632 0.17905927 0.3797525 -0.38329372 0.26578945 -0.5949114 0.189635 0.17641388 0.42145807 -0.13839027 -0.07272364 -0.17741564 -0.041935377 -0.12618394 -0.07341766 0.11377595 0.015571259 0.042726666 0.2719671 -0.38210395 -0.78867453 0.21732002 0.072628066 -0.28434065 -0.15537436 -0.30590317 -0.2585151 -0.1419314 0.06960772 -0.1429324 -0.022146951 0.10982258 0.28474334 -0.35873735 -0.14169225 0.2509849 0.31182596 -0.29545897 -0.2027945 -0.15810268 -0.16277336 -0.03395328 0.5446999 0.26325434 -0.49030685 0.4454183 -0.057030853 0.1904843 -0.06530443 -0.03440809
2740 -0.123796836 -0.07219257 0.4195851 0.55357826 0.14362997 -0.31564638 0.61368006 0.022590239 0.06829279 -0.21992524 -0.16217875 -0.20434569 0.21359025 -0.20405391 0.5961466 -0.49924967 0.21219917 0.12861864 0.3982582 0.07897331 -0.0654356 -0.2700809 0.096633025 0.123170465 -0.091411725 0.13103314 0.10737292 0.1291955 -0.036240097 -0.26802245 -0.87441355 0.3174233 0.042805333 -0.22666393 -0.16597871 0.035218313 -0.15710987 -0.10825034 -0.09403756 -0.11276847 -0.026617864 0.08332344 0.15733637 -0.3107643 -0.22665505 0.20061085 0.43584487 -0.5220131 0.19621763 -0.25177807 0.14448975 -0.1898841 0.519463 0.04990578 0.116941854 0.38880816 0.26453164 0.13900267 0.24947639 -0.055855617
2760 0.04721583 -0.44980472 -0.095349625 0.5065732 -0.38788024 -0.03209589 0.40434018 -0.43046758 0.34152845 0.25200403 -0.28087872 -0.069097355 0.43081364 -0.2129046 0.00043680653 -0.8118761 0.11231141 0.004202384 0.283034 -0.39808717 -0.005769467 -0.10088589 0.35663736 -0.3587749 -0.043071523 -0.069578126 0.23420282 0.050034765 -0.083687656 0.14586411 -0.60898316 0.3648072 0.0931737 -0.24121808 0.06131897 -0.4665316 -0.054553837 -0.3824446 0.33161584 -0.33006892 -0.24553554 0.058044136 0.21602422 -0.32423508 0.09488696 0.4322314 0.014650273 -0.17425095 -0.36831492 -0.5271132 -0.40811527 -0.09229402 0.43963647 0.008532731 -0.27207428 0.16515127 -0.14579159 -0.2869637 -0.72037464 0.32728165
2773 -0.038813088 -0.33543688 0.12069834 0.25037053 0.06976335 -0.1737986 0.56243694 -0.036780026 0.35323748 0.022986379 -0.06583313 -0.066765286 0.46347967 -0.055161625 0.026839703 -0.48016167 0.23063186 0.0064999615 0.46903616 -0.20583773 -0.1513297 -0.32971758 0.14985509 0.13869233 -0.069577284 -0.22538021 0.3046368 0.053652316 0.119072825 0.18244976 -0.900048 0.061468784 0.26781818 -0.4994146 -0.17452349 -0.24223495 -0.42423928 -0.21690975 -0.10292077 -0.43427578 0.10025883 0.10718146 0.38500187 -0.5073336 0.04617125 0.48007354 0.24272688 -0.3354183 0.085344404 -0.25180772 0.329368 0.21044998 0.7392409 0.07674212 -0.24498433 0.14608318 -0.26515314 -0.17012125 0.015665155 0.39663815
2784 -0.2908007 -0.38818917 -0.15621524 0.51269317 -0.022684094 0.026130341 0.016323091 -0.1241999 0.41735363 0.097963326 -0.266969 0.07856717 0.42508098 -0.64246744 0.43201962 -0.5466556 0.11353464 0.041457318 0.22325945 -0.18125637 -0.12634149 -0.2325099 0.05852688 -0.32355955 -0.053001884 -0.03854203 0.123561695 0.02174463 0.3483095 -0.2774382 -0.81036353 0.07300941 0.11943038 -0.124510795 0.02803464 -0.3922209 -0.3338407 -0.28410792 0.2504547 0.08593367 0.13802797 0.04456099 0.3256696 -0.3499676 -0.28886408 0.020386502 0.4694792 -0.24557263 -0.0371974 -0.28334257 -0.43219736 -0.14811736 0.18589896 0.3334855 -0.3791981 0.60825527 -0.17363702 0.07537364 -0.35368255 -0.09486979
2782 0.08427373 -0.64994234 0.013854395 0.27676803 -0.0644844 -0.15594126 0.6735658 -0.16589725 0.333966 0.10170153 -0.1228845 0.017388485 0.43729272 -0.1272639 0.15396868 -0.5962721 0.16765969 0.115905575 0.4489448 -0.24939601 0.14767765 -0.26207688 0.17324597 0.117042035 -0.17968142 -0.054616194 0.33103395 0.068926215 0.15270318 0.24845676 -0.7659146 0.10569073 0.109049 -0.4405365 -0.23092237 -0.2075157 -0.43680102 0.027557092 -0.05993937 -0.21696207 0.007003472 0.13882321 0.37168556 -0.5119479 0.045539103 0.5249857 0.36940977 -0.3999725 0.19529413 -0.1736268 0.4096598 0.10928608 0.7923692 0.040818818 -0.1367366 0.103666626 -0.44716713 -0.15304565 0.1623185 0.18957013
2674 -0.36599728 -0.18359263 -0.09336644 -0.24184264 0.03590523 -0.30854142 -0.3513007 0.015384951 -0.40686762 0.015982999 0.5022702 0.21694109 0.16167435 0.08317452 -0.5214966 -0.08858361 0.425949 -0.024476212 -0.1948402 0.786592 0.17181715 -0.31176382 0.5880553 0.053143807 0.10751013 0.50616336 -0.21972528 0.11375913 -0.13153131 0.78335685 -0.9620855 0.31580403 -0.788673 -0.25222483 0.6771498 0.23528703 0.021719053 -0.0049062204 7.291935e-05 1.0766864 0.49281564 -0.50291085 0.3787939 0.77472097 0.12402531 -0.4122457 -0.8019379 -0.4885076 0.38186315 -0.6523689 0.022812774 0.18914826 0.35051847 0.2918912 0.2188633 0.3489101 0.34792593 -0.95691514 -0.30743572 -0.595072
2680 -0.48857638 -0.353301 0.34422746 -0.11797405 -0.22815566 -0.29011315 -0.44483343 0.06797215 -0.084427364 -0.33774155 0.46516958 -0.15468958 0.03360715 -0.33894086 -0.41328514 -0.22039396 -0.030386573 0.0840578 0.024323251 1.0490853 0.0065355375 -0.46388653 0.34231246 0.052629348 0.23271431 0.115654744 0.19339709 0.76067793 0.046480544 0.5058956 -0.5507662 -0.057799216 -1.0568702 0.023543168 0.27069166 0.24142732 0.24919492 0.25133476 0.36591786 0.2820709 0.0142432125 -0.35884032 0.29333645 0.69356173 0.34977412 -0.043621726 -0.32879922 -0.25441894 0.49881735 -0.4928367 0.31103733 0.40060547 0.1588825 0.43633062 -0.07229048 -0.17034899 0.018833755 -0.8127717 -0.34411854 -1.0253195
2790 -0.24293952 -0.20843539 0.007918704 0.42799908 0.0158872 -0.17506796 0.46138617 0.09067202 0.3740204 -0.06752009 -0.2047235 0.1821316 0.2719811 -0.17937459 0.32073474 -0.5702755 0.1892696 0.0043094005 0.41961077 -0.08761038 0.27398658 -0.4081447 0.01738187 0.28534964 -0.054426055 0.23350526 -0.032167148 -0.05711134 -0.10021956 -0.049100857 -0.89708513 0.27901527 0.15865739 -0.5593479 -0.30225623 -0.279124 -0.2079508 -0.07502788 -0.026252527 -0.3500817 0.00047934317 0.11418449 0.29796967 -0.4788135 -0.0838929 0.4400574 0.37502903 -0.21733281 0.18864352 -0.47036126 0.0300272 0.058785617 0.67250246 0.20054662 -0.097957656 0.16532207 -0.045311157 -0.042442296 0.3634076 0.16394672
2636 -0.5612571 0.09911402 0.60918444 -0.07682852 -0.1281087 -0.52819395 -0.38420308 0.040457167 -0.15916586 0.3982071 -0.07194757 -0.14594571 -0.16884752 -0.090094395 -0.5472719 -0.31913438 0.31591296 -0.17463185 -4.689098e-05 1.0330552 -0.055609457 -0.25183266 0.37368295 -0.037615765 -0.4312833 0.010145138 -0.46125668 0.50388634 0.23884206 0.9331586 -0.38073915 0.14169964 -0.8809353 -0.067841545 0.019240452 -0.107012354 0.6833007 0.23146884 0.027475867 0.2610353 1.1098015 0.34159023 -0.25622866 0.334452 -0.12825698 -0.6860303 -0.2773214 -0.48648304 0.39195043 -0.16234414 0.7500688 0.19328026 0.5730409 0.5788184 0.42031956 0.06260575 0.45397362 -0.9365897 -0.40620545 -0.78743255
2697 -0.62726265 -0.17303912 0.5029832 -0.2088042 -0.28484926 -0.44524798 -0.464422 0.10974655 -0.032867055 0.16232608 -0.20140071 -0.27994436 -0.31530014 -0.5262446 -0.41968453 -0.40211922 0.18004088 0.060268465 -0.027847163 1.0552999 -0.17041641 -0.33983785 0.4375076 -0.09914264 -0.35328174 0.085556015 -0.049535684 0.3011504 0.04031864 0.7742896 -0.24841344 0.15488814 -0.85085267 -0.07716408 0.0069264355 0.05607498 0.6442221 0.24180761 0.00833583 0.09902781 0.7170714 0.23149122 0.06129613 0.6007364 -0.21351272 -0.6664042 -0.5570567 -0.25142577 0.48999092 -0.34087455 0.51183337 0.24957594 0.5533245 0.41669923 0.16454498 -0.005899789 0.29558614 -1.1484121 -0.30480108 -0.73603225
2794 -0.24555942 -0.12485198 0.14345282 0.3707239 -0.07207656 0.109739564 0.1054557 -0.013406117 0.37593988 0.35199463 -0.19473259 0.16782483 0.41221935 -0.39418066 0.34935248 -0.53700155 0.1762886 0.09106505 0.28331518 -0.18903175 -0.06710283 -0.37489706 0.33646116 -0.24810635 -0.300883 -0.10362962 0.009325183 0.1601908 0.20072874 -0.24463402 -0.656129 0.06479118 0.27602363 -0.43788147 0.10070074 -0.4925469 -0.12974332 -0.16382684 0.31078237 -0.23016927 -0.13124974 0.024890825 0.2649016 -0.34717682 0.1320614 0.15484472 0.34985885 -0.34064233 0.040910084 -0.2523256 -0.35610515 -0.11698361 0.31492442 0.47066954 -0.37070358 0.47432357 -0.10126105 0.19474685 -0.27260408 0.17224245
2625 -0.49687758 -0.23804022 0.4849546 -0.34284475 -0.29086918 -0.5208875 -0.5210477 0.13122791 0.13008624 -0.32088876 0.030238494 -0.30747142 -0.2545736 -0.6323194 -0.551411 -0.29616308 -0.15053245 0.08582107 0.24284679 0.83389175 -0.022302656 -0.2590783 0.18365504 0.1960495 -0.24303167 0.08872237 0.25460753 0.63922715 0.14861591 0.33547032 -0.38103995 -0.20695218 -1.0052942 0.032250643 0.30338174 0.10927068 0.38852924 0.540576 0.27814022 0.16957544 0.22548974 -0.2401841 0.11746752 0.60922724 0.23127438 -0.2771679 -0.06821502 -0.15584527 0.35468528 -0.62616736 0.53997064 0.3411884 0.44801062 0.21932094 0.26148033 -0.0903421 0.091225274 -0.95837 -0.5557765 -0.9366761
2739 -0.24019432 0.3462993 0.44912767 0.3832945 0.07623693 -0.18755366 -0.045091975 0.22575685 -0.06532895 -0.20912547 0.14925961 -0.33348182 0.06867765 -0.20510966 0.39289886 -0.36893478 0.10215279 -0.023093825 0.2984158 -0.064633824 -0.047059413 -0.43852502 0.019493673 0.021840375 -0.21816683 0.120265044 0.059234895 0.059952997 0.15003648 -0.12247853 -0.63606423 0.21875966 0.07670671 -0.023741677 -0.15652867 -0.04115785 -0.07140679 0.11668514 -0.096536964 0.051696133 0.17439406 0.11133938 0.14218327 -0.1287048 -0.112232745 0.01776655 0.503354 -0.34359172 0.31948856 -0.090330355 0.15318355 -0.123106 0.59668 0.09757041 0.17508245 0.3194477 0.046238013 0.11326364 0.038727082 0.05660064
2788 -0.015019712 -0.18921877 0.094196655 0.44347587 -0.064862065 -0.015089901 0.47480687 -0.39874747 0.51586306 0.37627074 -0.28830913 0.039499577 0.52792245 -0.19044583 0.11199372 -0.55963534 0.45812497 0.0071288776 0.37098458 -0.35791495 -0.057015575 0.033043306 0.39895037 -0.03181882 -0.26696262 0.010764326 0.052965656 0.050169162 -0.008049415 -0.01990745 -0.7430629 0.1462137 0.26532233 -0.23804727 -0.05792245 -0.49019894 0.08581502 -0.40657017 0.3452198 -0.2677815 -0.14752093 0.22299385 0.24297097 -0.20845191 0.15426369 0.32725203 0.12657836 -0.03323808 -0.27878416 -0.5968173 -0.27043647 0.17826438 0.48052722 -0.16174062 -0.41242218 0.28014123 -0.39247388 -0.22160281 -0.40689185 0.19366716
2757 0.16275586 -0.5807129 0.09537937 0.21508768 -0.3898434 -0.077019 0.3050752 -0.26407585 0.23387158 0.39068127 -0.17467287 -0.11447664 0.2431247 -0.094585046 -0.035085514 -0.4159211 0.14161205 -0.2501969 0.041248243 -0.42873734 0.10127079 -0.41542202 0.17825384 0.009721686 -0.16061477 -0.120858334 0.26798663 -0.003990218 0.068234526 0.30423796 -0.86900556 0.06062252 -0.19218583 -0.2806548 -0.26675704 -0.40226698 0.039484 -0.2796216 0.029367156 -0.3248928 -0.14365995 0.26760912 0.3363444 -0.26332855 0.1783751 0.54156786 0.20030014 -0.047783356 0.16152573 -0.19604497 0.18169482 0.2684482 0.6486465 0.05898794 -0.07864813 -0.16102035 -0.19551405 -0.31524277 -0.11328198 0.38137037
2792 -0.13993594 -0.31246275 0.07283145 0.3191018 -0.12276221 -0.10393267 0.5271972 -0.23556678 0.18289278 0.16797371 -0.010555357 0.18249877 0.52798194 -0.31223768 0.22176766 -0.44101802 -0.00010157832 0.027009085 0.39599094 0.008883232 0.024210136 -0.38437647 0.18655501 0.23074253 -0.3172422 0.18781823 0.009561422 -0.022861091 -0.023829294 0.026822077 -0.83105284 0.10157725 0.04496366 -0.5881974 -0.43954954 -0.2606588 -0.35939655 -0.23381191 0.1647788 -0.3852047 0.029394455 0.11546799 0.28544798 -0.64491093 -0.29099193 0.5806009 0.3363885 -0.2655989 0.2834235 -0.3296446 0.17028609 0.08078059 0.68901956 -0.0720872 -0.06567531 0.1499244 0.058599878 -0.033176165 0.25170377 0.24347755
2791 -0.2295759 -0.083206095 0.2288946 0.40423536 -0.051506 -0.13199194 0.34380698 0.067019135 0.6412336 -0.00563227 -0.20638514 0.1546063 0.31668788 -0.5313241 0.55330753 -0.41135663 -0.056157243 0.13565588 0.1880013 -0.2834682 0.051799268 -0.1203108 0.18331176 -0.3607899 -0.07049491 0.05960076 -0.10747555 0.0939701 0.3885677 -0.21869403 -0.7755696 0.050075226 0.18016334 -0.3587819 -0.06766368 -0.3590158 -0.15511452 -0.33450535 0.19723985 0.0036562548 0.061814252 0.0066660354 0.38799524 -0.36703333 -0.098148115 0.073102586 0.60001016 -0.3930473 -0.051685553 -0.3944337 -0.3290416 -0.10750356 0.24631852 0.2142099 -0.32177854 0.594015 0.034587212 0.0030971947 -0.19507645 -0.06857125
2663 -0.5075812 -0.02112173 0.23583515 -0.27395862 -0.17651924 -0.52567923 -0.46199793 0.12398383 -0.008096121 0.3299956 -0.30769914 -0.0049603228 -0.19121727 -0.1543495 -0.59772664 -0.23831017 0.4609164 -0.017579278 0.3179052 0.7279477 0.005614024 -0.23375368 0.43660346 0.09174336 -0.32395464 0.25441745 -0.38115382 0.28789902 0.14735565 1.0547493 -0.39448363 0.3518406 -0.80340356 -0.077911034 0.05587978 -0.13675849 0.5372976 0.15222989 -0.054944042 0.32099435 0.96918684 0.28180522 -0.25876415 0.6524931 -0.08371303 -0.68423367 -0.4020282 -0.38044047 0.45357224 -0.19678204 0.5168986 0.25288275 0.6374659 0.55082 0.30654216 0.29643604 0.54012656 -0.96008044 -0.3208077 -0.8117494
2786 -0.22610702 -0.25363672 0.29423922 0.36545902 0.27811268 0.07598178 0.6456019 0.0236861 0.19750282 -0.14106096 -0.29406163 0.20716898 0.13286372 -0.2284775 0.5049078 -0.6544425 0.123750925 -0.08774651 0.4708098 0.06723728 -0.053769674 -0.5177166 0.373029 -0.02939446 0.19207042 0.1244445 0.23056369 -0.08708126 -0.034129396 -0.15649961 -0.67743844 0.26489985 0.19184254 -0.61365896 -0.21776015 -0.08871147 -0.37208048 0.00034534375 0.032805976 -0.22217368 0.078619406 0.10867655 0.5217425 -0.26363847 -0.29105273 0.2808926 0.5333949 -0.37538314 0.053062513 -0.30834827 -0.038066547 -0.3261892 0.5125789 0.22471598 -0.043020997 0.53059596 0.18004283 -0.008148928 0.22173493 0.10268996
2787 -0.22990541 -0.19669619 0.36391246 0.5425589 0.21667618 -0.053193547 0.5676381 -0.0012467236 0.18833928 -0.06876298 -0.10300595 0.20127665 0.21254158 -0.113208115 0.5995118 -0.6597928 0.104975075 -0.045792937 0.4006874 0.1693894 -0.044912852 -0.4255898 0.09703462 0.23830442 0.099022076 0.15552557 0.023922067 0.18935618 -0.08928874 -0.07960392 -0.7769563 0.29448697 0.09428251 -0.52376986 -0.17978328 0.02400334 -0.30194503 -0.12797748 -0.12613305 -0.32948205 0.0351781 0.13540041 0.27338058 -0.56561583 -0.009316274 0.23158886 0.6085775 -0.6539827 -0.008110928 -0.42030153 0.0654671 -0.1693581 0.557337 0.12726116 -0.10957859 0.40526015 0.19576801 0.117222406 0.17116164 -0.016281188
2622 -0.4191 -0.14538114 0.15918662 -0.0467813 0.12902156 -0.53453803 -0.44043496 0.06934112 -0.22404756 -0.02503663 0.39693666 0.047678825 -0.08790038 -0.08455753 -0.6286651 0.09881258 0.21896105 0.41506812 0.003550063 0.7951554 -0.15326223 -0.56764317 0.3891781 -0.024832182 0.11403456 0.33230665 -0.0868744 0.39940217 0.053540513 0.6422799 -0.74913484 0.18765517 -0.9824687 -0.17592384 0.37268853 0.2608006 0.12781386 0.2849528 0.02877769 0.76856226 0.480529 -0.17875963 0.43432704 0.6745779 -0.017234653 -0.26899713 -0.70721847 -0.31966388 0.32764855 -0.6284441 0.23968521 0.29065228 0.27746025 0.718857 -0.061052877 0.0175075 0.013671425 -0.84302956 -0.2899889 -0.65865403
2619 -0.37660643 -0.03626792 0.11508967 -0.028107919 -0.34613824 -0.36097416 -0.2908203 -0.23691195 -0.2598754 -0.28140455 0.31686816 0.20311062 -0.08301898 -0.15871263 -0.25706753 0.059419893 0.28046477 0.65387505 -0.066451035 0.71844286 -0.10820944 -0.45622617 0.3339873 0.13235457 0.2467417 0.17767486 -0.0005177153 0.5442866 -0.13785711 0.36218074 -0.67673045 0.015216149 -1.0937113 -0.005104625 0.37869042 0.49355325 0.15135784 0.3262758 0.12603015 0.55365133 0.4297957 -0.46275783 0.5214431 0.6565553 0.1968564 0.0057865568 -0.29354164 -0.40359405 0.52842194 -0.68526506 0.47066084 0.43715313 -0.016431896 0.29268873 -0.13576423 -0.0137132695 0.036742717 -0.9474758 -0.5566441 -0.7424031
